%YAML:1.0
my_svm: !!opencv-ml-svm
   svm_type: C_SVC
   kernel: { type:LINEAR }
   C: 1.0000000000000001e-001
   term_criteria: { epsilon:2.2204460492503131e-016, iterations:100 }
   var_all: 100
   var_count: 100
   class_count: 11
   class_labels: !!opencv-matrix
      rows: 1
      cols: 11
      dt: i
      data: [ 1, 2, 3, 4, 5, 6, 7, 8, 9, 10, 11 ]
   sv_total: 55
   support_vectors:
      - [ 1.02662043e-005, -4.95236854e-005, 1.77014135e-006,
          -5.23579183e-006, 5.72057579e-005, 4.11781621e-005,
          6.67059339e-006, 8.24480812e-005, -7.73286301e-005,
          -9.11594470e-005, 4.60236743e-006, -3.82526923e-006,
          1.31347697e-005, -3.10362084e-005, 7.34458354e-006,
          5.23110684e-005, 5.71788551e-005, 7.19866293e-005,
          1.43973621e-005, -8.65228940e-005, 9.32902913e-005,
          -1.45945705e-005, 1.05190793e-005, -2.49006753e-005,
          2.86808372e-005, 6.46947301e-005, -4.37193157e-005,
          4.84244583e-006, 8.56954284e-005, 4.98012305e-005,
          6.37253106e-005, 1.66307291e-005, -5.83068104e-005,
          4.06979525e-005, -4.80478266e-005, -2.61677396e-005,
          -6.56922930e-005, 1.26654350e-005, -2.34948220e-005,
          -2.02515421e-005, 2.59480184e-005, 5.88879702e-005,
          -1.39877902e-005, -3.24418579e-005, 1.49250700e-005,
          -1.80578372e-005, 3.08686140e-005, -7.88121179e-005,
          -3.69481240e-005, 5.49582619e-005, 5.15343891e-005,
          4.08699343e-005, 3.83278602e-005, 5.32497506e-005,
          1.34249358e-005, 6.32782321e-005, -5.28352684e-005,
          -1.15812645e-005, 2.17177640e-005, 5.21959046e-005,
          3.05621179e-005, -3.31309798e-006, -9.22781401e-005,
          3.13857454e-005, 7.13896006e-005, -2.35976549e-005,
          5.83406327e-005, -1.86176439e-005, -2.39358633e-005,
          4.30741857e-005, 1.93352407e-005, 4.86208446e-005,
          1.69720970e-005, 2.81531738e-005, -9.98241558e-006,
          1.94013155e-005, -5.75614831e-005, 1.33608301e-005,
          -1.67578364e-005, 4.37081981e-005, 5.10092686e-005,
          -2.58044438e-005, 3.20445506e-005, -1.15431048e-005,
          7.09093947e-005, -1.52184953e-006, -1.40320171e-005,
          -1.35480886e-005, 1.20619743e-005, 6.99952125e-006,
          2.67922369e-005, -1.94198424e-006, 1.75455934e-005,
          1.15337662e-005, 2.13240901e-006, -4.22255152e-006,
          5.89268041e-007, 2.81802545e-006, 2.27348501e-005,
          -4.46987542e-005 ]
      - [ -7.50872414e-006, -4.84930060e-005, -1.85401186e-005,
          2.26618449e-005, 5.26807489e-005, 7.13687914e-005,
          3.84348823e-005, 8.70058939e-005, -4.77088324e-005,
          -6.76020354e-005, -4.35311722e-006, -9.50479659e-007,
          4.14341084e-005, -1.21060057e-005, 2.97886672e-005,
          4.39259966e-005, 2.37859058e-005, 2.83503632e-005,
          2.51958554e-005, -7.79819820e-005, 7.28256709e-005,
          -1.23540985e-005, 4.70893501e-005, 1.01424339e-005,
          2.45485571e-005, 7.89940241e-005, -1.02567874e-005,
          3.55768898e-005, 4.92574691e-005, 9.79564720e-005,
          4.64451186e-005, -2.63282709e-005, -5.06646356e-005,
          1.50289334e-005, -3.47063760e-005, -2.71424688e-006,
          -3.93379632e-005, -3.23044878e-005, -2.00538379e-005,
          3.60460290e-005, 1.58047587e-005, 7.79663060e-006,
          -1.10461451e-005, -1.59750198e-005, 1.00787975e-005,
          -1.79045401e-005, 1.74230972e-005, -4.77815365e-006,
          -2.04073258e-005, 5.87434261e-006, 1.91618637e-005,
          2.95272071e-006, 3.94925446e-005, 3.08970230e-005,
          1.29131058e-005, 3.38069112e-005, -7.86983674e-006,
          3.71324450e-006, -1.02210361e-005, 2.87362818e-005,
          4.37638573e-006, -6.38883921e-006, -3.46589768e-005,
          3.36648081e-005, 4.88174846e-005, -8.75446040e-006,
          4.77049398e-005, 1.85389508e-005, 1.55276284e-005,
          1.38537998e-005, 4.99624184e-006, 3.44906539e-006,
          1.19194046e-005, 2.68150470e-005, -2.73427486e-005,
          9.09955997e-006, -4.36356204e-005, 9.05960769e-006,
          -3.70191156e-005, 1.24228272e-005, 1.42393574e-005,
          -2.08580459e-005, 4.24299287e-006, 1.65947604e-005,
          2.89828022e-005, -2.14779702e-005, 1.02425583e-005,
          -1.67870694e-005, -5.61006618e-006, 1.56544011e-005,
          8.54088830e-006, 1.09735220e-005, -1.51303095e-006,
          -3.34952965e-005, 1.00789612e-006, -4.18547052e-006,
          -9.58843339e-006, 1.06108537e-005, -5.21827315e-006,
          -1.91519484e-005 ]
      - [ -6.92026060e-006, -4.97777874e-005, -1.11670024e-005,
          2.21671107e-005, 6.34672324e-005, 7.69469189e-005,
          4.09214517e-005, 8.98868893e-005, -3.58411453e-005,
          -6.27911941e-005, 1.17847148e-005, -9.32332114e-006,
          4.08107298e-005, -5.90539821e-006, 2.03560921e-005,
          6.42410087e-005, 5.89032015e-006, 2.87984017e-006,
          2.84884409e-005, -5.94124613e-005, 5.32202976e-005,
          -4.19451935e-005, 1.75279201e-005, 2.17597226e-005,
          3.55829470e-005, 6.67426793e-005, 1.06655102e-006,
          5.52184065e-005, 3.90085042e-005, 7.68692335e-005,
          4.29291977e-005, -3.23409986e-005, -2.84476519e-005,
          -4.99934686e-006, -2.23348634e-005, 1.64719870e-006,
          -2.89913951e-005, -2.49843688e-005, -1.35281889e-005,
          4.36369846e-005, 3.20739018e-005, 1.61868920e-005,
          9.62145350e-006, -8.02488557e-006, -9.55859741e-006,
          -1.89824150e-005, -5.01662839e-007, -8.28774955e-006,
          -1.79500621e-005, 1.66800091e-005, -2.45139290e-006,
          -1.74250781e-005, 1.88944123e-005, 2.07791036e-005,
          1.28573420e-005, 1.97226200e-005, 7.67888923e-006,
          -4.90946650e-006, -5.27086195e-006, 3.35867517e-005,
          -1.48141826e-005, 1.28768761e-005, -2.15694563e-005,
          1.23424352e-005, 1.84059736e-005, 6.37904850e-006,
          2.24358882e-005, 7.07601112e-006, -1.01445062e-006,
          2.82160472e-005, -8.95063476e-006, -2.99815747e-006,
          7.14045427e-006, 2.03160448e-006, 5.62378955e-006,
          1.67378294e-005, -1.66916852e-005, 1.56331607e-005,
          -1.95364028e-005, -9.90671924e-006, 8.04146657e-006,
          -2.04544995e-005, -1.63924342e-005, 8.00317412e-006,
          2.78071111e-005, -3.52090910e-006, -6.26462088e-006,
          -9.58182045e-006, 3.54665599e-006, 2.06451641e-005,
          -5.73556918e-006, 6.99219390e-006, -8.54134305e-006,
          -7.87286626e-006, 7.06155242e-006, -1.25274473e-005,
          -9.59452450e-007, -8.92772368e-006, -2.85556530e-006,
          -1.11742120e-005 ]
      - [ -3.74343426e-006, -7.30893589e-005, -4.13016778e-006,
          1.05643576e-005, 6.90498564e-005, 7.73557767e-005,
          4.30487271e-005, 7.85456286e-005, -5.57868516e-005,
          -9.29309681e-005, 9.73787155e-006, -2.79561809e-005,
          1.88502054e-005, -1.02096583e-005, 2.64792252e-005,
          5.11279322e-005, 1.05948448e-005, -4.33520381e-006,
          3.64080297e-005, -3.62820574e-005, 2.63964957e-005,
          -2.51341717e-005, 1.63660534e-005, 1.91137497e-005,
          1.87258283e-005, 4.27270643e-005, -3.52016577e-005,
          2.44816456e-005, 7.64884987e-007, 2.34134095e-005,
          4.33908717e-005, -3.28951933e-006, -6.74665762e-006,
          3.86976308e-006, 1.03716975e-005, 1.23955510e-006,
          1.15893436e-005, -1.67707130e-005, 9.71676172e-007,
          2.15691853e-005, 4.82235191e-006, 2.40103145e-006,
          1.66838327e-005, -1.96333767e-005, -1.57281229e-005,
          -1.92728039e-005, 4.10126313e-006, 3.96329006e-006,
          -1.05124591e-005, 2.69852808e-005, -2.20543207e-005,
          1.17027012e-005, 2.25311232e-005, 1.27433959e-005,
          1.94470977e-005, 3.13482960e-005, -6.30714840e-006,
          6.79728009e-006, -2.25079748e-005, 3.53256073e-005,
          -5.56274108e-006, 2.29022353e-005, -1.25151746e-005,
          7.95639335e-006, 3.65664323e-006, 5.42017142e-006,
          3.62815626e-005, 2.65276485e-005, 4.67171412e-006,
          2.95831833e-005, -2.49010009e-005, 1.22357278e-005,
          -9.04329409e-006, 1.35960900e-005, -3.97545227e-006,
          -1.28206475e-005, -1.39708254e-005, 1.86984707e-005,
          -1.54091867e-005, -6.83725148e-006, 1.09265293e-005,
          -1.84668843e-005, 7.94265452e-006, -1.12216333e-006,
          1.01238602e-005, -1.43906618e-006, -6.36570476e-008,
          -1.57297400e-005, -1.76353624e-005, 8.56307508e-007,
          6.77678827e-006, 1.16418123e-005, 1.08897029e-005,
          1.63193126e-005, 1.34805914e-005, -1.45412705e-005,
          7.39094730e-006, -1.08064423e-005, 7.62087348e-006,
          -6.84387942e-006 ]
      - [ -5.60548415e-006, -8.00732014e-005, -1.72373930e-005,
          7.63923879e-007, 6.68916546e-005, 5.58081811e-005,
          3.66032182e-005, 5.60499466e-005, -3.53241703e-005,
          -7.57150265e-005, -2.24671976e-006, -1.69803334e-005,
          -7.56085569e-007, -1.49382940e-005, 2.82276142e-005,
          2.49300847e-005, 5.59134924e-006, -5.58006923e-006,
          2.65195104e-006, -5.36029074e-006, 1.41581972e-006,
          -2.09395039e-005, 8.93525885e-006, -1.20291179e-006,
          2.16325971e-005, 2.14675711e-005, -3.78338227e-005,
          8.21920548e-006, -1.76454505e-005, 2.32068237e-006,
          1.37559873e-005, 5.34738717e-007, -5.84439749e-006,
          7.76472717e-008, -2.55965697e-005, 1.31260640e-005,
          -2.21577229e-005, -1.32064497e-006, 3.24872121e-006,
          1.40465136e-005, 9.57594239e-006, 7.98241945e-006,
          1.25459246e-005, 6.49987442e-007, -1.21517323e-005,
          -1.11782092e-005, 1.65491815e-006, 3.10772384e-006,
          8.23513892e-006, 1.11944082e-005, -1.47943520e-005,
          2.68371627e-006, 1.59443734e-005, 3.70555722e-006,
          -3.18364368e-006, 1.98383441e-005, -2.13106978e-005,
          5.47549280e-006, 4.50983907e-006, 1.23418349e-005,
          -1.22760484e-005, 8.34265666e-006, -1.16983174e-005,
          8.76437298e-006, 9.90527406e-006, -2.05308061e-006,
          1.84065884e-005, 1.06700581e-005, 1.28011197e-005,
          1.56731512e-005, 2.70853377e-007, -9.02718227e-007,
          7.45057059e-006, -1.22659446e-006, 7.32420233e-007,
          -5.14261046e-007, -1.36785775e-005, 1.52392076e-005,
          5.05672369e-006, 7.11030270e-006, 1.19769766e-005,
          -7.66990343e-006, -4.44045008e-006, -7.33455408e-007,
          1.06266834e-005, 3.43265583e-007, 5.23612016e-006,
          -3.77441847e-006, 5.50481275e-007, -1.89642299e-006,
          -7.84249369e-006, 3.53234327e-006, -1.23005952e-006,
          -7.19760237e-006, 9.65509298e-006, -2.29589000e-006,
          -5.22797109e-006, 8.40020948e-006, -4.94661163e-006,
          -1.66265590e-006 ]
      - [ -4.84956354e-006, -7.74313012e-005, -2.80647291e-005,
          3.50047821e-006, 6.27784102e-005, 5.39190369e-005,
          4.96041757e-005, 4.46448721e-005, -4.29507490e-005,
          -7.65034783e-005, -1.81599592e-006, -1.56692768e-005,
          -3.51247968e-006, -1.53959390e-005, 3.53736177e-005,
          1.74253764e-005, -4.51879316e-007, -9.05443358e-006,
          3.44307432e-006, -1.67561357e-005, 6.13812472e-006,
          -2.41173475e-005, 9.47427998e-006, -1.55768557e-005,
          1.25809174e-005, 1.66676255e-005, -2.08883976e-005,
          1.05735580e-005, -5.05920116e-006, 2.49335499e-005,
          9.75905732e-006, 1.39654912e-006, -1.06881307e-005,
          -5.38479117e-006, -2.02894989e-006, 1.63751738e-005,
          -9.61027672e-006, -7.26564122e-006, 1.21789708e-005,
          1.04802584e-005, 1.62272627e-005, 5.23584913e-006,
          1.62351553e-005, -5.49477818e-006, 3.86390047e-006,
          -6.44653210e-006, 6.17653632e-006, -3.26099297e-007,
          7.98311430e-006, 1.65314123e-005, -6.31423063e-006,
          -4.65952354e-007, 6.22753078e-006, 3.63218828e-006,
          1.50535388e-005, 1.82102467e-005, -1.63907334e-005,
          -6.66349752e-006, -5.20029926e-006, 1.75583154e-005,
          1.57465456e-006, 9.04753142e-006, -1.85499721e-005,
          -6.46301032e-006, 1.57356044e-005, -9.38769517e-006,
          1.07575443e-005, 1.53076326e-005, 8.18827903e-006,
          1.33832000e-005, 4.73051432e-006, -6.02041609e-006,
          -1.51152437e-006, 2.46423292e-006, -4.64961659e-007,
          1.02469066e-005, -6.73552177e-006, 2.39101337e-006,
          1.15450657e-005, 9.79864581e-006, 6.76016668e-007,
          -8.67580184e-006, -1.14795121e-005, -3.42350086e-006,
          1.29182336e-005, -1.51229153e-006, 3.54548411e-006,
          -1.13919887e-005, -1.42206102e-006, 3.43054489e-006,
          -3.79288281e-006, 5.06138122e-006, 1.31563138e-005,
          -1.15031889e-005, 6.44189754e-007, -4.04889579e-006,
          -2.14070997e-006, 3.13250166e-006, -8.82737913e-006,
          -2.05923106e-006 ]
      - [ -4.16836838e-006, -7.46871374e-005, -2.30085661e-005,
          2.98415216e-006, 7.45824364e-005, 3.29807553e-005,
          3.89726738e-005, 3.76658718e-005, -4.37676172e-005,
          -5.65782575e-005, 1.38553787e-005, -1.51748918e-005,
          -6.45259888e-006, -1.32795667e-005, 4.15696159e-005,
          1.92155562e-006, -5.67749566e-007, -4.66789061e-006,
          9.27561905e-006, -1.19619081e-005, 8.88108661e-006,
          -2.00698196e-005, 8.88128852e-006, -1.17821310e-005,
          9.13509757e-006, 6.91489367e-006, -2.09185946e-005,
          -4.51269034e-006, 1.21700987e-005, 2.43956056e-005,
          1.33033541e-006, 5.63655476e-006, -2.07689773e-005,
          4.57074702e-006, 6.59634725e-006, 1.03736475e-005,
          -3.99787405e-006, -5.36549487e-006, 7.69878079e-006,
          4.44133093e-006, 1.95530174e-006, 2.24235168e-006,
          5.68194582e-006, -1.24169519e-005, 3.99453074e-006,
          -1.53049427e-006, 4.99988209e-006, -4.20710336e-007,
          6.35322385e-006, 1.91908675e-005, -8.24835388e-006,
          4.02610704e-006, 3.22690698e-006, 9.51357379e-006,
          1.05145673e-005, 1.95742996e-005, -1.09601951e-005,
          -1.25808419e-005, 2.06734194e-006, 1.20640589e-005,
          2.05336232e-006, 5.82341318e-006, -2.41011112e-005,
          -1.15888793e-006, 1.54330428e-005, -2.47671869e-006,
          -4.88627485e-008, 1.54886839e-005, 9.67768210e-006,
          1.37866291e-005, -3.60015315e-006, -6.83017333e-006,
          -6.79189816e-006, 2.35195012e-006, -3.89010074e-006,
          1.92265929e-006, 1.69877524e-006, 7.39023699e-006,
          -1.70093941e-007, 4.17716956e-006, -2.03984746e-006,
          -3.07418736e-006, -4.10066150e-006, -1.51869597e-006,
          7.43523469e-006, -7.78873800e-006, 4.35541187e-006,
          -1.77061349e-006, 6.56905695e-006, 2.37588688e-006,
          -1.05572212e-006, -4.55082500e-007, 4.35485703e-007,
          -1.59215847e-006, 3.16707428e-006, -5.80893675e-006,
          -7.42606233e-007, -3.00843112e-006, -1.23022528e-006,
          -1.66256984e-006 ]
      - [ 1.69957150e-006, -6.95285198e-005, -3.09906209e-005,
          -4.65517587e-006, 6.68995126e-005, 1.08946933e-005,
          2.51154452e-005, 3.13649871e-005, -4.17892734e-005,
          -6.10513016e-005, 3.40474821e-006, -7.81622475e-006,
          -2.40071495e-006, 1.87287799e-006, 5.43653587e-005,
          7.31135606e-006, 7.03757507e-007, 7.09356982e-006,
          1.70099665e-005, -2.31170197e-005, 2.03032505e-005,
          -4.77598087e-006, 1.98895668e-005, -7.21066363e-006,
          1.13774267e-005, -1.90581534e-006, -3.28305978e-005,
          -1.84456585e-005, 1.38215328e-005, 9.92688911e-007,
          8.73615318e-006, 1.23507652e-005, -1.20416980e-005,
          -1.08718004e-005, -1.52211915e-005, 1.42283543e-005,
          -8.42044756e-006, -7.04010063e-006, 9.25632867e-006,
          -1.03595210e-006, 2.01359489e-005, 2.18251389e-005,
          9.27663496e-006, -4.93257312e-006, 7.91150705e-006,
          -7.64759307e-007, 1.85763520e-006, -3.38515451e-006,
          -2.66720303e-006, 4.94163578e-006, -2.59029912e-006,
          2.46099330e-006, 1.57055911e-005, 8.71859720e-006,
          1.43023208e-005, 3.94860263e-006, -1.50330416e-005,
          -4.21322875e-006, -5.90538548e-006, 1.25599863e-005,
          -1.22136207e-005, 6.88525824e-006, -1.70188214e-005,
          -5.73871966e-006, 5.08088669e-006, 4.52153088e-008,
          8.88100658e-006, 8.31700891e-006, 1.48175050e-005,
          2.00491036e-006, -1.19007555e-005, 3.35488812e-006,
          -9.70611109e-006, 3.71308170e-006, -1.66019913e-006,
          4.23412212e-006, -4.24807155e-007, 1.98348721e-006,
          8.92705157e-006, 4.02324872e-007, -5.55730821e-006,
          -1.35322935e-005, -5.08160929e-006, 7.73013471e-006,
          1.67708367e-005, -6.87854254e-006, 3.52857114e-007,
          7.98991368e-006, -3.15190096e-006, 4.22710673e-006,
          1.08918557e-005, 3.06881907e-006, -6.97591759e-006,
          -1.14504228e-005, -1.02286617e-006, -3.47319246e-006,
          -6.11652240e-006, -5.86052556e-006, 4.81988479e-007,
          1.52517362e-006 ]
      - [ -6.05547757e-006, -5.98456427e-005, -4.03472222e-005,
          -1.03293917e-006, 7.66220764e-005, -1.80551178e-005,
          2.34695508e-005, 1.37878833e-005, -3.81252939e-005,
          -3.83939150e-005, -4.84972134e-006, -5.43990654e-006,
          9.37545579e-008, 2.27452711e-005, 3.91238464e-005,
          1.17808149e-005, 2.83319537e-006, 1.46999162e-006,
          2.69764150e-005, -9.14428347e-006, 3.19590872e-005,
          9.05769048e-006, 4.48633800e-005, -1.43815505e-005,
          3.59973160e-006, 1.82657786e-005, -4.11442943e-006,
          -2.09625196e-005, -1.34620200e-006, 2.28020272e-005,
          -6.97970609e-006, -8.19358320e-006, -1.33339188e-006,
          -6.49054073e-007, -9.94429865e-006, 1.43525212e-005,
          -4.35284301e-006, -1.03159809e-005, 1.92860607e-005,
          -5.16107775e-006, 1.18452326e-005, 1.22664469e-005,
          1.82752574e-005, 6.54174755e-006, -5.82565235e-006,
          -8.62204251e-006, -3.28167266e-006, -7.42218162e-006,
          1.26199643e-006, 6.19313687e-006, 8.28213615e-006,
          2.38378152e-006, 7.88106718e-006, 8.59606189e-006,
          -2.71955923e-006, 1.55486123e-005, -1.52330467e-005,
          -4.36835535e-006, -9.73533042e-006, 5.28647297e-006,
          -8.19093293e-006, 1.42194267e-005, -1.15360217e-005,
          7.20586377e-006, 1.10361168e-006, 4.51212463e-006,
          7.69582493e-006, 5.33917137e-006, 1.08679042e-005,
          8.62803427e-006, 3.58020338e-006, -8.39932636e-006,
          -1.15614250e-006, 7.82054769e-007, 6.40367398e-006,
          -8.21859066e-006, -5.44353179e-006, 1.16293450e-006,
          5.69856411e-006, -8.15286967e-006, -2.33552373e-006,
          -8.97709651e-006, -8.38130381e-006, -3.00493252e-006,
          1.16799038e-005, 5.90141873e-008, 4.68333292e-006,
          -1.52278358e-006, -4.14656142e-006, 7.67933670e-006,
          -3.41682721e-006, -2.37480322e-006, 7.86858982e-006,
          3.75315426e-006, 2.66766119e-006, 2.86806699e-006,
          2.38386022e-007, 1.24800158e-006, 1.04752564e-006,
          -6.89327771e-006 ]
      - [ 2.89134664e-006, -7.19304444e-005, -1.70971634e-005,
          3.13874239e-006, 4.02875412e-005, 7.18822484e-005,
          3.68654146e-005, 5.50329569e-005, -2.86418272e-005,
          -8.69657961e-005, -4.31451872e-006, -1.05355766e-005,
          -8.48461150e-006, 2.71203930e-006, 1.57019767e-005,
          2.90710723e-005, 4.61090121e-006, -6.83624603e-006,
          1.47687915e-005, -2.94116708e-005, -6.05386822e-006,
          -2.25258027e-005, 3.57396093e-005, 1.16360607e-005,
          1.57855739e-005, 1.53747878e-005, -4.46209560e-005,
          -8.73227236e-006, -1.44610594e-005, 4.89734703e-007,
          3.41288396e-005, -3.78401273e-006, 1.38871030e-006,
          5.58420106e-006, -1.09245991e-006, 6.22919015e-006,
          -8.70107954e-007, -1.70033381e-005, 1.73940534e-005,
          7.13856161e-006, 1.95989287e-005, 9.30237911e-006,
          6.48760670e-006, -8.86869930e-006, -1.40316943e-005,
          -2.54148290e-005, 1.64108587e-006, 5.22021674e-006,
          1.10176200e-006, 1.17217378e-005, -5.06121887e-006,
          -4.83759823e-006, 5.99581654e-006, 7.92868832e-006,
          2.59281078e-005, 3.68474321e-005, -1.21027315e-005,
          -7.81279141e-006, 1.32017624e-006, 1.23962836e-005,
          -2.48506749e-005, 5.81510858e-006, -1.53615456e-005,
          1.75712594e-005, 3.72849013e-006, 1.79782103e-006,
          2.96389353e-005, 1.56727583e-005, 1.05253966e-005,
          2.24881860e-005, -2.01295661e-005, -2.34491245e-006,
          1.37973063e-006, -3.97372105e-006, -6.16605121e-006,
          -8.80201424e-006, -9.17383568e-006, 1.32739024e-005,
          -1.80719542e-006, 1.72865239e-005, 7.77105743e-006,
          -7.18760248e-006, 1.56460743e-007, -4.44346961e-006,
          1.90675346e-005, -8.63056903e-006, 4.29824581e-007,
          -2.05247784e-006, 4.56372300e-006, 8.29177770e-006,
          -4.40573240e-006, 2.75563366e-006, 5.62415471e-006,
          -9.81768608e-006, 9.29189127e-007, -4.10487701e-006,
          -3.66224043e-007, 1.16094643e-005, -2.90858793e-006,
          -8.65793538e-007 ]
      - [ -1.32509422e-005, -8.74696998e-005, -2.32352068e-005,
          -3.96997876e-007, 5.47718555e-005, 1.14439805e-004,
          4.86635399e-005, 1.17125870e-004, -5.36714033e-005,
          -7.89156838e-005, -5.95961537e-005, -5.36166090e-006,
          4.63922333e-005, 1.21391341e-008, 5.52445417e-005,
          4.23810707e-005, 3.98864977e-005, -9.06430705e-006,
          6.49497379e-005, -8.25871321e-005, -4.84857374e-005,
          -7.24930442e-006, 7.81020426e-005, 6.70162190e-005,
          -6.14732971e-006, 1.14943388e-004, 2.51379356e-006,
          1.01526675e-004, 1.72215368e-005, 2.03603078e-004,
          7.81269846e-005, -1.11453541e-004, -4.69512670e-005,
          1.53866984e-006, -1.23585005e-005, 6.95262352e-005,
          -1.00472553e-005, -8.39702479e-005, -2.76508817e-005,
          5.00588649e-005, -4.76114001e-005, -5.21380207e-005,
          6.84601255e-005, -2.36990509e-005, -3.68450055e-005,
          -2.82268666e-005, 2.73085316e-005, 8.25949246e-005,
          1.81518226e-005, -4.99695443e-006, -3.51975250e-005,
          -1.02083060e-004, 2.94022584e-006, 2.40429436e-005,
          -3.51701347e-005, -6.54112955e-006, 2.64836362e-005,
          5.19226815e-005, -6.64870386e-005, 8.26259748e-006,
          -5.44647883e-005, -4.71936619e-005, 4.76823661e-005,
          2.53523922e-005, 3.81518257e-005, 3.33301396e-005,
          5.51166795e-006, 2.63641396e-005, 4.49986946e-005,
          -1.72860728e-005, -3.89067536e-005, -9.58908568e-005,
          -3.92459151e-006, 6.73332806e-006, -4.65051089e-005,
          3.49194925e-005, -3.23091554e-005, 6.18770355e-005,
          -1.05651590e-004, -2.11325114e-005, -3.90884597e-005,
          -3.80883939e-005, -3.63457038e-005, 8.09220728e-005,
          -3.31218434e-005, 2.38482644e-005, 5.16169021e-005,
          2.24050353e-007, -1.41087176e-005, 3.74581286e-005,
          -2.77941922e-006, 3.54646145e-005, 2.16769404e-005,
          -1.52086781e-004, -4.21643417e-005, -3.86210886e-005,
          -2.87522853e-005, 3.23941313e-005, 2.68826807e-005,
          6.01841166e-005 ]
      - [ -3.81297491e-006, -8.98820435e-005, -1.56920923e-005,
          1.54630361e-005, 4.55583322e-005, 6.89540466e-005,
          5.56433406e-005, 9.80597761e-005, -6.95707204e-005,
          -7.22697223e-005, -3.93777082e-005, -4.39179603e-005,
          5.05017015e-005, -3.14046565e-006, -4.15071008e-006,
          7.22663972e-005, 3.63546974e-006, -6.49567373e-005,
          5.19890455e-005, -3.79092817e-005, -4.09619024e-005,
          -3.01989567e-005, 4.23220627e-005, 7.62227937e-005,
          3.02079889e-006, 7.53992499e-005, 4.57115020e-005,
          1.11800415e-004, 3.52015661e-007, 1.19708566e-004,
          5.17640910e-005, -9.84169747e-005, -2.06541881e-006,
          -9.19803369e-006, 1.39163558e-005, 4.08728229e-005,
          3.32975796e-005, -6.25513712e-005, -1.84968812e-005,
          3.18407692e-005, 8.20975401e-006, -5.79653388e-005,
          3.22268024e-005, -1.65793117e-005, -2.66442403e-005,
          -3.03083816e-005, -1.18243488e-005, 3.13745695e-005,
          2.55632149e-005, 3.88935587e-005, -2.23598799e-005,
          -6.62115344e-005, -4.07352454e-005, 3.52074380e-006,
          -7.55199380e-006, -2.23399493e-005, 5.30532234e-005,
          3.98049997e-005, -4.94453598e-005, 3.77743891e-005,
          -6.63300671e-005, 1.20022642e-005, 4.40270924e-005,
          -5.70318207e-006, -1.24381604e-005, 1.45605582e-005,
          1.10064809e-006, -2.02381875e-006, -2.39726592e-006,
          -2.36707183e-005, -6.44777265e-006, -5.80586020e-005,
          -1.81959695e-005, -2.79087235e-005, 2.11549577e-005,
          5.25139476e-005, 1.14301301e-005, 4.64174227e-005,
          -5.68731484e-005, -4.81787101e-005, -2.33374794e-005,
          -2.54262832e-005, -4.13661655e-005, 3.80600577e-005,
          -2.27905966e-005, 4.72980137e-005, -1.37364495e-005,
          -3.42950813e-007, -2.11353454e-005, 5.23954986e-005,
          -5.00094893e-006, -1.71187967e-005, 2.23216448e-005,
          -6.15035897e-005, -8.40438679e-006, -4.62999560e-005,
          1.44773253e-006, -8.34326670e-007, -7.14053385e-006,
          4.78259608e-005 ]
      - [ -9.29770158e-006, -9.23865373e-005, -2.31963240e-005,
          2.08029196e-005, 5.47479067e-005, 4.52959503e-005,
          4.71953244e-005, 8.06489188e-005, -7.90227496e-005,
          -9.89114196e-005, -3.60359845e-005, -4.00958888e-005,
          1.86667276e-005, 1.08104332e-005, 4.32090346e-005,
          3.18969505e-005, -2.76929732e-005, -5.18610104e-005,
          6.69947185e-005, -1.02595709e-006, -4.68222133e-005,
          -3.63431718e-005, 1.87136502e-005, 6.81386518e-005,
          -1.52297152e-005, 2.36332871e-005, -1.93202322e-005,
          4.78979782e-005, -2.67119703e-005, 3.18589264e-005,
          5.58363608e-005, -3.02004028e-005, 1.93411051e-005,
          1.87308672e-006, 3.19272185e-005, 1.37330235e-005,
          4.69840124e-005, -4.31130647e-005, 2.35351968e-006,
          2.79813457e-006, -1.49997795e-005, -6.00266030e-005,
          1.48211411e-005, -9.19847571e-006, -5.20531576e-005,
          -1.91217187e-005, -1.24611224e-005, 3.00100128e-005,
          1.66707141e-005, 3.23697641e-005, -3.69524532e-005,
          -1.83478842e-005, -1.47438086e-005, 1.49753996e-005,
          5.04428817e-006, 3.34124888e-006, 1.99826136e-005,
          4.12840673e-005, -3.77896031e-005, 2.24640880e-005,
          -2.52524569e-005, 1.91124400e-005, 3.39543876e-005,
          -1.35025612e-005, -2.92858331e-005, 1.36744584e-005,
          1.87211936e-005, 1.34952988e-005, -5.35305389e-006,
          -2.26104876e-005, -3.53103242e-005, -6.17751448e-006,
          -4.29084212e-005, -3.08955168e-006, 4.60066758e-006,
          -2.73017258e-006, 2.43279214e-006, 2.53229773e-005,
          -2.92083532e-005, -2.43678587e-005, -1.94070508e-005,
          -1.69253326e-006, -4.52791454e-007, 1.21629591e-005,
          -5.55946644e-005, 2.81561606e-005, -1.45523491e-005,
          9.61289402e-007, -2.70801465e-005, 8.04554838e-006,
          5.20867889e-006, 1.18046428e-005, 2.47754306e-005,
          1.21269181e-006, 1.59299416e-005, -1.95620978e-005,
          8.69332962e-006, -1.44138073e-006, -2.38510438e-006,
          1.52302118e-005 ]
      - [ -1.09421180e-005, -1.00456193e-004, -2.58479504e-005,
          -2.11270105e-007, 5.50431214e-005, 5.29690624e-005,
          4.13572889e-005, 6.88499204e-005, -4.53300127e-005,
          -9.24509804e-005, -1.81661726e-005, -3.78702935e-005,
          -9.26755092e-006, -4.91525134e-006, 4.96998400e-005,
          -3.05671438e-006, -9.71997088e-006, -3.49128677e-005,
          2.98251380e-005, 1.39694366e-005, -4.64300574e-005,
          -2.90122080e-005, 1.46899238e-005, 1.30587287e-005,
          2.19768899e-005, 1.64492176e-005, -2.85859714e-005,
          1.78473329e-005, -3.24424836e-005, 5.91471553e-006,
          2.06537861e-005, -1.42596700e-005, 5.77460423e-006,
          -4.48462242e-006, -3.29158975e-005, 1.80802726e-005,
          -9.13071199e-006, -7.99937425e-006, 5.37322364e-008,
          1.12328617e-005, -1.69173982e-005, -1.86533398e-005,
          9.03263754e-006, 1.56029273e-005, -2.84383459e-005,
          -4.08775259e-006, -9.72315047e-006, 1.04834144e-005,
          2.98196737e-005, 1.53454184e-005, -3.37522833e-005,
          -1.19522647e-005, 3.03141633e-006, -3.29464842e-006,
          -2.27207292e-005, -3.12392103e-006, -9.99555959e-006,
          2.64611335e-005, 6.12305712e-006, -4.31038325e-006,
          -2.26713983e-005, 3.41217128e-006, 5.40136671e-006,
          2.24651649e-006, -8.82805307e-006, -1.63317566e-007,
          5.68634869e-006, 1.55095063e-006, 9.21995797e-006,
          -5.56891973e-006, -1.56179865e-007, -1.50317592e-005,
          -6.36712457e-006, -3.62807327e-006, 6.04484194e-006,
          9.08870607e-006, -9.18251374e-007, 1.11507043e-005,
          -5.15661259e-006, -8.97954138e-008, 7.29779276e-006,
          -1.75091373e-006, 5.16943874e-006, 1.12456255e-005,
          -1.50091273e-005, 2.61529567e-005, -4.14950682e-006,
          3.59996056e-006, -4.15580189e-006, 3.15419470e-006,
          -1.25519764e-005, -2.90850789e-006, 4.57174929e-006,
          -3.30691819e-006, 5.87597879e-006, -1.54760437e-005,
          -1.22020519e-005, 1.63364712e-005, -4.72805959e-006,
          2.14538213e-005 ]
      - [ -5.60000331e-007, -1.06371990e-004, -4.44073848e-005,
          -4.01236981e-008, 4.77701542e-005, 4.59375187e-005,
          5.85710914e-005, 3.65830383e-005, -4.62821226e-005,
          -9.60076213e-005, -1.73237586e-005, -3.13472883e-005,
          -3.07875621e-006, -2.44949865e-006, 5.85058333e-005,
          -1.38276948e-006, -2.22993731e-005, -3.87086075e-005,
          2.62002395e-005, 3.04973514e-006, -3.45498847e-005,
          -2.52457157e-005, 3.80156757e-006, 5.57753822e-007,
          2.41778639e-006, 5.50641835e-006, 3.87715374e-007,
          1.62584674e-005, -6.49049070e-006, 3.34058786e-005,
          2.30386031e-005, -1.31529323e-005, -2.95966032e-007,
          -8.87551778e-006, 7.62856916e-006, 1.04294659e-005,
          1.35635801e-005, -1.01879768e-005, 1.43424413e-005,
          4.83249096e-006, -1.73774552e-005, -3.13749551e-005,
          1.12285161e-005, 8.96940401e-006, -6.51144865e-006,
          1.27301109e-005, -1.13892920e-005, 1.73005665e-005,
          3.17926169e-005, 2.06744553e-005, -1.42566387e-005,
          -7.41707208e-006, -2.85801343e-006, -1.15808843e-005,
          8.45408886e-006, -6.08204482e-006, -4.83941039e-006,
          1.12600719e-005, -1.03547482e-005, -6.30017803e-006,
          -3.80685970e-006, 8.78564549e-007, -1.26596478e-005,
          -1.89836992e-005, -3.83275392e-006, -7.81031076e-007,
          2.97746260e-006, 1.32711366e-005, 2.19358049e-006,
          -1.18539110e-005, 1.65250924e-006, -1.57732211e-005,
          -8.63483092e-006, 7.80306254e-006, 9.19143167e-006,
          1.42887748e-005, 5.19245896e-006, 1.86040083e-007,
          -5.37536835e-006, 3.41991404e-006, -7.69804683e-006,
          -3.14915565e-006, 1.86613465e-006, 1.05836161e-005,
          -5.81274571e-006, 2.35677744e-005, -7.10746099e-006,
          -6.29995247e-006, -6.31452076e-006, 1.00622883e-005,
          -8.17112505e-006, -3.61181242e-006, 1.98030775e-005,
          -1.29230339e-005, -7.05667026e-006, -1.49927318e-005,
          -6.09205244e-006, 6.85240684e-006, -4.19396156e-006,
          1.97943027e-005 ]
      - [ -1.29208956e-006, -9.74171635e-005, -3.76428434e-005,
          -7.70962470e-006, 6.84134793e-005, 1.46767725e-005,
          4.86678400e-005, 3.13069759e-005, -4.88967307e-005,
          -6.96898060e-005, 2.22327526e-006, -3.00961801e-005,
          -1.16723450e-005, -5.54753228e-007, 6.46952030e-005,
          -9.58500550e-006, -1.13472879e-005, -2.72555717e-005,
          2.67167416e-005, 1.48255469e-006, -1.35301498e-005,
          -2.36126180e-005, 4.60238152e-006, 3.58519259e-007,
          1.75245430e-006, -1.63923346e-006, -4.88550597e-007,
          -2.16994681e-006, 1.43113621e-005, 3.04600362e-005,
          1.73520730e-005, -2.11984093e-006, -1.86044217e-005,
          3.18821662e-006, 1.73485132e-005, 3.50268374e-006,
          1.99506903e-005, -9.89903128e-006, 9.42600582e-006,
          3.37050960e-006, -2.56066305e-005, -2.05206670e-005,
          3.22177880e-006, -5.19244622e-007, -6.32832644e-006,
          1.42431145e-005, -2.00253471e-005, 9.68528457e-006,
          2.76075116e-005, 1.28563161e-005, -1.78684313e-005,
          1.90467006e-006, -3.76441608e-006, -1.35686344e-006,
          7.86945384e-006, 2.81629946e-006, -4.23485744e-006,
          -4.43238918e-007, 7.70857639e-007, -1.05113349e-005,
          -6.15448744e-006, 3.14140175e-006, -2.05065753e-005,
          -1.37445495e-005, 8.77986440e-006, 1.96282286e-007,
          -1.10766896e-005, 1.46074335e-005, 8.53238362e-006,
          -1.67203247e-008, -1.04200999e-005, -1.44143960e-005,
          -8.08478853e-006, 4.13194448e-006, -3.69640202e-006,
          4.83984650e-006, 1.41442088e-005, 1.34308493e-005,
          -1.16476749e-005, 1.15655030e-006, -1.41503697e-005,
          -9.53710810e-007, 2.77391882e-006, 7.98186920e-006,
          -1.07632895e-005, 6.31655439e-006, -5.01822726e-008,
          6.32978890e-006, 7.12666088e-006, 8.76180184e-006,
          -4.80848666e-006, -4.01920170e-006, -3.48495905e-006,
          -4.87335171e-007, -5.94089840e-007, -1.11701829e-005,
          -1.43105993e-007, 2.92780328e-007, -8.26579992e-007,
          1.27529529e-005 ]
      - [ 4.63965534e-006, -9.13317708e-005, -5.13984778e-005,
          -8.65353559e-006, 6.54804317e-005, -7.37428309e-006,
          3.85599669e-005, 1.85337649e-005, -4.21195364e-005,
          -7.15930801e-005, -1.27320382e-005, -1.26393907e-005,
          -4.00596218e-006, 1.36812705e-005, 6.44142565e-005,
          -1.35783939e-005, -3.05508047e-006, -5.32388913e-006,
          3.57494500e-005, -2.18158505e-007, 2.31840704e-006,
          -6.40632862e-008, 2.34296149e-005, -6.24706945e-006,
          -1.58242437e-006, -1.51147515e-005, -1.08529975e-005,
          -1.65391848e-005, 1.29236760e-005, 6.12364192e-006,
          1.70313870e-005, 1.55972211e-005, -1.12801365e-006,
          -2.44640541e-005, -1.64718695e-005, 8.94261302e-006,
          1.74113738e-005, -1.03566163e-005, 5.75063859e-006,
          -3.57384215e-006, -5.74629166e-006, -1.32967045e-006,
          5.89308047e-006, 3.42385601e-006, 2.57065244e-006,
          9.15736837e-006, -2.15949476e-005, 7.06533797e-007,
          9.61049227e-006, -6.08565915e-006, -1.13173501e-005,
          -3.60846047e-006, 1.37318921e-005, -2.16601484e-006,
          9.95734445e-006, -7.95472806e-006, -2.51701010e-007,
          3.14171507e-006, -7.89403748e-006, -4.60121964e-006,
          -2.63487836e-005, 5.17837520e-007, -7.28104351e-006,
          -1.14838786e-005, -1.04519668e-005, 4.15412114e-006,
          9.11451389e-006, -3.83465476e-006, 1.93092819e-005,
          -1.05775152e-005, -2.07192916e-005, 7.38055633e-007,
          -1.06094249e-005, 7.64756260e-006, 3.68722181e-006,
          7.78306821e-006, 6.31872945e-006, 2.25630515e-006,
          9.07301455e-007, -8.11241807e-006, -1.70819549e-005,
          -3.38131463e-006, -2.34306822e-006, 2.12810992e-005,
          -7.71762006e-006, 8.93560718e-006, -6.15172394e-006,
          2.08915826e-005, -1.05333438e-005, 6.45346245e-006,
          1.39953618e-005, 3.84157420e-006, -1.06860607e-005,
          -1.43422976e-005, -1.55893849e-006, -1.48222343e-005,
          -7.73401098e-006, -6.86289923e-007, 8.59608988e-008,
          1.15678540e-005 ]
      - [ -4.01113584e-006, -6.24452223e-005, -4.83624754e-005,
          -9.86193027e-006, 6.64153486e-005, -4.18557538e-005,
          2.50784124e-005, 1.64763389e-006, -2.99174717e-005,
          -3.13638993e-005, -1.66087066e-005, -5.87909972e-006,
          -1.09892412e-007, 3.91442554e-005, 3.75080708e-005,
          -2.68416215e-006, -2.68475446e-006, -1.35331557e-005,
          3.67418797e-005, 1.32974083e-005, 9.85779661e-006,
          1.68690640e-005, 4.93962289e-005, -7.16341128e-006,
          -4.43760064e-006, 1.50257920e-005, 2.36915566e-005,
          -1.11796617e-005, -7.25757218e-006, 2.53190319e-005,
          -4.56461476e-006, -1.39252170e-005, 8.97359041e-006,
          -6.88033106e-006, -6.65285552e-006, 6.08179926e-006,
          1.88944123e-005, -7.93556410e-006, 1.25586193e-005,
          -5.76227831e-006, -9.13454187e-006, -9.85122006e-006,
          1.50822725e-005, 1.08541362e-005, -9.32938019e-006,
          7.34192497e-007, -1.38353098e-005, -1.42961858e-006,
          1.43943798e-005, 1.35823541e-006, 4.18942818e-006,
          -4.72415286e-006, 8.62470552e-006, -3.69622967e-006,
          -1.84037856e-006, 6.37588801e-006, -3.01754812e-006,
          -2.17434504e-007, -8.84668316e-006, -6.30349450e-006,
          -1.34344900e-005, 1.38798996e-005, -3.88491662e-006,
          -1.33250481e-007, -1.11775107e-005, 9.14786870e-006,
          1.02181903e-005, -6.40430244e-006, 1.53694491e-005,
          -5.34460332e-006, -1.10301937e-006, -1.17064656e-005,
          -5.18953811e-007, 1.86190300e-006, 8.84597466e-006,
          -9.93110825e-006, -1.07893845e-006, 1.12411874e-006,
          1.01141825e-006, -1.85035879e-005, -1.00228435e-005,
          2.18947434e-006, -2.81849935e-007, 4.31999661e-006,
          -3.41108421e-006, 1.19296838e-005, -2.17121215e-006,
          8.29739110e-006, -9.93009598e-006, 1.27269577e-005,
          -4.37666813e-006, -1.13781959e-006, 9.23568950e-006,
          5.36858306e-006, 3.86277316e-006, -9.78380854e-007,
          -2.49291952e-006, 3.60509648e-006, -2.48544598e-006,
          -3.35697064e-006 ]
      - [ -3.47418762e-007, -8.01938659e-005, -2.96020899e-005,
          5.91876233e-006, 1.19514207e-005, 6.37974008e-005,
          2.67489504e-005, 6.29635906e-005, -3.20574909e-005,
          -1.03104889e-004, -3.37639503e-005, -2.56404965e-005,
          -1.04763867e-005, 2.00178129e-005, 1.74161378e-005,
          8.48892341e-006, -1.82964704e-005, -3.25331712e-005,
          4.16358307e-005, -1.00811549e-005, -5.59197542e-005,
          -3.48189751e-005, 5.25000178e-005, 2.81502471e-005,
          1.24623175e-005, 6.52948256e-006, -3.10755495e-005,
          -4.21746927e-006, -2.68476833e-005, -6.21378649e-006,
          4.58131908e-005, -2.44393632e-005, 1.83260690e-005,
          -2.78755260e-006, 6.61947843e-006, 1.18970784e-005,
          2.36405394e-005, -2.12953692e-005, 2.79695796e-005,
          -6.70789677e-006, -1.59253232e-005, -2.26260745e-005,
          -3.98372913e-006, -1.86502734e-006, -3.54203366e-005,
          -3.00909469e-005, -1.11479139e-005, 1.15702896e-005,
          1.64658886e-005, 1.40541770e-005, -1.82771219e-005,
          -2.33483843e-005, -9.16534191e-006, 4.15059048e-006,
          1.58535950e-005, 7.65474397e-006, 2.76470917e-008,
          9.28559530e-006, 1.34557553e-007, -1.28420506e-005,
          -3.94042436e-005, 9.33989156e-007, 1.25976212e-005,
          5.41241252e-006, -1.83507309e-005, 2.36169944e-006,
          1.77169259e-005, -4.47784259e-006, 1.51040709e-007,
          7.71691589e-007, -3.33753160e-005, -1.71113770e-005,
          -1.76312424e-005, -4.53143412e-006, 3.57689100e-006,
          -8.59496595e-007, 1.07764290e-005, 5.89103001e-006,
          -8.15584008e-006, 1.38366722e-005, 6.00986004e-006,
          -5.40105066e-006, 1.22067440e-005, 1.15352450e-005,
          -1.30265562e-005, 1.59931315e-005, -1.76106296e-005,
          7.11297298e-006, 1.78564130e-006, 3.19717255e-005,
          -6.44589545e-006, 1.71002728e-006, 1.77005302e-006,
          -1.42477720e-005, -1.04498031e-005, -1.84385117e-005,
          -2.07022595e-006, 2.18341029e-005, 3.21694711e-006,
          1.44221558e-005 ]
      - [ 4.03707345e-005, -1.34305214e-004, -4.46025915e-005,
          5.12161205e-006, 3.61434504e-005, 2.05835772e-006,
          6.92193571e-005, 6.51934752e-005, -2.07016692e-005,
          -4.55133850e-005, -5.23110866e-005, -3.63992294e-005,
          1.65793426e-005, -3.89681118e-005, 2.28744411e-005,
          4.81645075e-005, -3.45980989e-005, -4.28729181e-005,
          7.24532174e-006, 1.54562513e-005, -5.77609244e-005,
          1.25466868e-005, 2.77587242e-005, 1.03034727e-004,
          1.18273219e-005, 2.45048250e-005, 3.78008481e-005,
          7.29272360e-005, -4.49256695e-005, 5.43864335e-005,
          -3.46341449e-006, -4.09305030e-005, 2.54104489e-005,
          1.25222887e-005, 4.32546185e-005, -2.70849632e-005,
          5.07945952e-005, -3.01412474e-005, -1.31042434e-005,
          8.90499450e-006, 7.65969744e-005, -4.74175104e-005,
          1.98957459e-005, 1.00361765e-004, -1.49581647e-005,
          -2.56267140e-005, 1.59358679e-005, 2.56413614e-006,
          -1.23636946e-005, 6.49854992e-005, 5.62591777e-006,
          -2.60640918e-005, -9.60218968e-005, 6.22399875e-006,
          4.34664253e-005, -3.83741171e-005, 4.72673855e-005,
          -1.92991338e-005, -1.40156726e-005, 7.04935519e-005,
          -1.39137683e-005, 6.60147998e-005, -8.17940327e-006,
          -5.09077581e-005, -2.15008240e-005, 2.65849803e-006,
          -9.64639821e-006, 1.52424436e-005, -3.02003464e-005,
          -4.23052843e-005, 1.49984098e-005, -9.66995117e-007,
          -1.86375246e-006, -9.99075710e-005, 5.81497734e-005,
          6.62303137e-005, -3.59375349e-006, -6.64461004e-006,
          1.24632322e-006, -7.65523509e-005, 1.30116932e-005,
          2.79087004e-007, -3.58718603e-006, 2.08445745e-005,
          -3.63022664e-005, -2.43578725e-005, -3.44000291e-005,
          1.21676712e-005, 6.15679455e-005, 5.90599884e-005,
          -1.62184551e-005, 2.36046271e-005, 1.87226342e-005,
          6.06701287e-005, -1.37098159e-005, -2.04507214e-005,
          5.08275843e-005, -1.66480659e-005, -3.99871715e-005,
          1.43334924e-004 ]
      - [ -3.37893971e-006, -1.46526145e-004, -5.17747358e-005,
          -7.66485573e-006, 7.91594866e-005, 5.57227977e-005,
          5.04765994e-005, 8.75909609e-005, -1.17988420e-004,
          -1.09567904e-004, -1.21129069e-005, -4.96213215e-005,
          -8.03192688e-006, -3.33097887e-005, 8.12256403e-005,
          1.96925448e-005, -2.90950011e-005, -2.20503243e-005,
          8.67441777e-005, 2.66266161e-005, -7.33002234e-005,
          3.28435544e-006, -2.24985506e-005, 6.40718645e-005,
          -4.61083546e-005, 6.64046127e-007, -5.26747826e-005,
          -3.22766391e-006, -4.66184465e-005, -9.19373269e-006,
          2.83943446e-005, -2.29270699e-005, 1.51643208e-005,
          -2.29044531e-006, 3.18281964e-005, -3.32660347e-005,
          -1.01120695e-005, -6.81033634e-005, -1.80731877e-005,
          -4.75060951e-005, -4.26538500e-005, -6.01626343e-005,
          4.34009089e-005, 4.01565740e-006, -3.16943260e-005,
          -8.30250865e-005, -3.85711282e-005, 3.81683167e-005,
          -2.02397987e-005, 4.21298355e-005, -5.25114774e-005,
          3.09108582e-005, -7.44598992e-006, -2.90096741e-005,
          1.85049521e-005, 8.09300855e-006, -6.46637200e-005,
          -5.59156888e-006, -2.69966986e-005, -3.36575386e-006,
          3.75725904e-005, 2.49518853e-005, 4.76161840e-005,
          -1.86453562e-005, 1.69829509e-005, 4.50682346e-005,
          6.07007460e-005, 6.02212058e-005, -5.94664562e-005,
          -9.11762618e-005, -5.76428429e-005, 5.11675389e-005,
          -7.28310624e-005, -2.93135981e-005, 2.49926634e-005,
          -3.21802581e-005, 7.19948439e-005, -7.02022817e-006,
          -2.26507200e-005, -1.79869985e-005, -4.74396475e-005,
          6.72907554e-005, 1.56192018e-005, 5.00977039e-005,
          -6.45968248e-005, 6.05365349e-005, -8.06176031e-005,
          -1.01813903e-005, 2.99722215e-005, -1.54081245e-005,
          -5.35710496e-005, 1.23883165e-005, 4.08605338e-005,
          6.98500953e-005, 1.60147029e-005, -6.72706592e-005,
          2.29366433e-005, -8.29485434e-005, -5.29384233e-005,
          4.92202962e-005 ]
      - [ 1.66000905e-006, -1.16775518e-004, -4.79502269e-005,
          5.27202928e-007, 6.04132147e-005, 5.05273347e-005,
          6.60692021e-005, 5.28794881e-005, -7.30969259e-005,
          -1.06273168e-004, -2.04279713e-005, -5.23408999e-005,
          6.38515985e-006, -2.04270473e-005, 8.11155332e-005,
          -1.07282540e-005, -8.96430720e-006, -1.46450457e-005,
          3.73209077e-005, 1.85710614e-005, -7.66579833e-005,
          -2.74242711e-006, 1.05505205e-006, 2.36299893e-005,
          5.57817702e-006, 3.76192793e-006, -3.25088840e-005,
          -1.83444354e-005, -5.27615921e-005, -1.49409361e-005,
          1.21635685e-006, -6.04562319e-006, 2.27260571e-005,
          -1.98235625e-006, -3.11373296e-005, 1.79027836e-006,
          -9.73268652e-006, -1.89955445e-005, 6.17527940e-006,
          3.30861872e-006, -8.32620663e-006, -2.54905735e-005,
          -3.03520574e-006, 3.16206861e-005, -4.24630089e-005,
          -9.98866835e-006, -1.83602460e-005, 1.02742260e-005,
          4.80474882e-005, 2.03593554e-005, -3.85988933e-005,
          1.41653777e-006, 2.45280462e-005, 3.08505810e-006,
          -1.33798403e-005, -1.11237132e-005, -3.81061946e-005,
          2.30995192e-005, 1.60332293e-005, 6.26105339e-006,
          -1.86435082e-005, 2.15141154e-005, 2.07278463e-005,
          -6.57991995e-006, -1.01984406e-005, -3.89320576e-006,
          9.87751173e-006, 6.14865439e-006, 1.66594655e-005,
          -2.06592849e-005, 1.69165578e-005, 1.01718406e-005,
          -2.10991384e-005, -1.85791632e-005, 2.30142268e-005,
          4.37910285e-006, -7.88522721e-006, -6.51752998e-006,
          3.27734779e-006, 8.23548908e-006, 2.37057830e-005,
          1.88235445e-005, 2.50415942e-005, 9.43990199e-006,
          -1.38225869e-005, 1.85913414e-005, -1.88681170e-005,
          1.66579093e-006, 1.32088644e-005, -1.74456327e-005,
          -2.98616360e-005, -1.48485260e-005, -1.57576210e-006,
          4.63407378e-005, 6.79593768e-006, -8.91273066e-006,
          -2.30881342e-005, 1.07931764e-005, -2.13174590e-005,
          2.76933788e-005 ]
      - [ 9.03701130e-006, -1.17668598e-004, -5.45024450e-005,
          -8.46570913e-007, 4.42338896e-005, 2.42203478e-005,
          7.38167728e-005, 1.78484170e-005, -5.75741724e-005,
          -1.03389255e-004, -2.33617666e-005, -3.76593234e-005,
          -5.42948374e-006, 6.95982692e-007, 7.84326476e-005,
          -2.02342562e-005, -2.80717504e-005, -3.19362698e-005,
          3.56166238e-005, 8.51543791e-006, -4.86188910e-005,
          -4.18947548e-006, -2.05299275e-005, 1.84249093e-005,
          -1.54066220e-005, -3.52298821e-006, 6.50138236e-006,
          -4.05989522e-006, -1.31794013e-005, 1.43677635e-005,
          2.14686661e-005, -9.38852190e-006, 1.35268674e-005,
          -9.45405191e-006, 2.43774302e-005, 5.61596198e-006,
          2.58017844e-005, -2.39651345e-005, 3.07820919e-005,
          -1.62576580e-005, 1.56255846e-005, -3.53616488e-005,
          -1.16234946e-006, 1.64698304e-005, -7.46122259e-006,
          1.50571686e-005, -2.55138420e-005, 9.27611927e-006,
          4.19655407e-005, 2.16760545e-005, 3.92096717e-006,
          8.91925538e-006, 6.97561654e-006, -1.14202303e-005,
          2.56523635e-005, -2.85366582e-006, -1.77967468e-005,
          1.13471697e-006, 7.33302784e-007, 1.18661510e-005,
          1.62089673e-005, 1.73011103e-005, 1.03703896e-005,
          -4.16617113e-005, 5.31483192e-006, -8.87030092e-006,
          3.72228442e-006, 2.26326611e-005, 1.13588612e-006,
          -1.68797505e-005, 2.27602068e-005, 9.31879822e-006,
          -2.59210647e-005, 6.61297872e-006, 2.34180134e-005,
          2.25747608e-005, 1.24530497e-005, -1.85860372e-005,
          1.24441040e-005, 6.08726850e-006, 5.98270753e-006,
          7.42700786e-006, 1.54632999e-005, 5.94659741e-006,
          3.00885688e-007, 1.97310146e-005, -2.32736347e-005,
          -2.34946274e-005, 4.72569184e-007, -5.76931370e-007,
          -1.32622245e-005, -2.16608005e-005, 1.88084668e-005,
          2.05052347e-005, -7.00894680e-006, -3.33659045e-006,
          3.20449175e-007, 2.54683300e-007, -2.18543846e-005,
          2.24389460e-005 ]
      - [ 6.86954809e-006, -1.16587173e-004, -4.40482472e-005,
          -1.17616401e-005, 6.20584469e-005, -8.63843979e-006,
          6.62309540e-005, 1.99293827e-005, -4.79989831e-005,
          -5.95993770e-005, 1.17458148e-006, -3.21985572e-005,
          -1.47958817e-005, -6.94933624e-006, 7.46011865e-005,
          -1.85265180e-005, 3.59048158e-006, -1.73611243e-005,
          3.31175543e-005, 1.80737588e-005, -2.81097346e-005,
          -2.92901427e-006, -1.35178643e-005, 1.01708956e-005,
          -6.48877858e-006, -7.41702934e-006, 6.20993478e-006,
          -1.73151329e-005, 8.31156103e-006, 1.34772190e-005,
          9.64078117e-006, -8.88283523e-007, -1.57447921e-005,
          6.32492402e-006, 2.82869605e-005, -8.37850803e-006,
          3.57202262e-005, -1.78129922e-005, 1.39317563e-005,
          -1.12702874e-005, -7.33070920e-006, -2.44491730e-005,
          -7.73006013e-006, 1.02339709e-006, -7.08518473e-006,
          1.99085061e-005, -2.71566460e-005, 5.70318662e-007,
          3.35618715e-005, 2.01891362e-005, -3.51420113e-006,
          1.81754513e-005, -1.16370927e-006, -1.90308810e-006,
          1.86368543e-005, 6.59979378e-006, -2.15733326e-005,
          -1.07776932e-005, 8.59511329e-006, -4.61048694e-006,
          3.96607356e-006, 1.97164845e-005, -1.04745077e-005,
          -2.55635441e-005, 1.36628441e-005, -3.44850832e-006,
          -1.45993063e-005, 2.27024630e-005, 6.53162533e-006,
          -4.97337078e-006, -2.56497583e-006, -1.45888259e-006,
          -1.87308669e-005, -4.97114979e-006, 4.71626709e-006,
          1.46566890e-006, 1.86771176e-005, 1.28507031e-006,
          -3.52952520e-006, 1.59925821e-006, -1.41507130e-007,
          1.00467196e-005, 1.23566560e-005, 2.50921630e-006,
          -5.95664324e-006, -1.96503629e-006, -1.07166516e-005,
          -2.70301780e-006, 1.50475398e-005, -5.01728209e-006,
          -3.71615397e-006, -1.88055874e-005, -8.11768223e-006,
          2.16502413e-005, 9.18246883e-007, -5.17182525e-006,
          1.07615415e-006, -1.20064260e-005, -1.36357576e-005,
          1.07008091e-005 ]
      - [ 1.05739837e-005, -9.82249258e-005, -5.94262674e-005,
          -1.18286316e-005, 5.78067338e-005, -2.28269964e-005,
          4.56562193e-005, 5.06694732e-006, -3.29935283e-005,
          -5.50466793e-005, -1.48883628e-005, -3.27859630e-006,
          -4.09034783e-006, 1.88661415e-005, 7.47690283e-005,
          -2.20351430e-005, 3.00779766e-006, 7.47916647e-006,
          4.53244356e-005, 1.53253804e-005, -5.98451561e-006,
          1.38339383e-005, 7.03084311e-007, 1.06600355e-005,
          -1.18696908e-005, -1.93551368e-005, -6.10793768e-006,
          -3.06776637e-005, 7.10371069e-006, -1.76235299e-005,
          4.24255495e-006, 1.59819429e-005, 8.57299528e-006,
          -2.23602256e-005, -6.52489598e-006, -3.66985819e-006,
          2.70233431e-005, -1.02792446e-005, 5.07084997e-006,
          -1.80880943e-005, 1.26630812e-005, -6.69688097e-006,
          -5.84577856e-006, 8.64814592e-006, 1.12062753e-006,
          6.40634335e-006, -2.55974628e-005, -6.82509062e-006,
          3.64081120e-006, 6.31353714e-007, -2.81126268e-006,
          8.12069811e-006, 1.72887649e-005, -2.23806694e-007,
          1.67522030e-005, -4.92610570e-006, -1.44150990e-005,
          -3.76355661e-006, -6.83919097e-006, 1.94555128e-006,
          -1.80342358e-005, 1.04077080e-005, 9.41166218e-006,
          -2.14906104e-005, -8.70739495e-006, -4.26988436e-006,
          9.72092221e-006, -6.59555838e-007, 1.99300066e-005,
          -1.60160089e-005, -1.22248439e-005, 1.07204596e-005,
          -1.51486784e-005, -9.13909332e-007, 1.08931899e-005,
          5.84676718e-006, 6.62955517e-006, -9.76157025e-006,
          8.01552414e-006, -1.21241897e-006, -6.78751167e-006,
          4.27996838e-006, 4.24944210e-006, 1.38018277e-005,
          -1.98761450e-006, 4.93659036e-006, -1.19669794e-005,
          1.08092117e-005, -4.93784091e-006, -8.50416291e-006,
          1.80838579e-005, -1.23685586e-005, -1.38058431e-005,
          -1.18318076e-006, -7.54851226e-006, -7.30500142e-006,
          -6.28397675e-006, -3.62219203e-006, -4.08384631e-006,
          1.14177938e-005 ]
      - [ 1.24305807e-005, -6.95538838e-005, -6.08982155e-005,
          -1.56812876e-005, 5.53555656e-005, -5.41205300e-005,
          2.75029161e-005, -1.14196218e-005, -1.10041910e-005,
          -1.43544084e-005, -1.28758356e-005, -1.05277677e-005,
          -1.95701705e-006, 3.25737092e-005, 3.91630529e-005,
          -8.64703907e-006, -5.62417290e-006, -2.98569262e-006,
          4.03500708e-005, 2.83273348e-005, 8.76777904e-006,
          2.70389046e-005, 4.29628162e-005, 6.85554710e-007,
          -1.03826260e-005, 6.56586735e-006, 2.34539093e-005,
          -1.93549440e-005, -1.20498744e-005, 7.99701138e-006,
          -1.42556937e-005, -8.19174056e-006, 1.83684060e-005,
          -7.72570365e-006, 4.33315699e-006, -3.81801055e-006,
          1.96359342e-005, -4.08061260e-006, 1.10155979e-005,
          -1.43109646e-005, 1.77478319e-006, -1.43145771e-005,
          5.32601598e-006, 1.28643396e-005, -1.01222367e-005,
          1.75788136e-006, -1.18570351e-005, -4.77712456e-006,
          1.26969799e-005, 6.54040059e-006, 5.70119801e-006,
          7.39392408e-006, 1.10957080e-005, -2.00476393e-006,
          2.71531394e-006, 6.75650654e-006, -7.27140559e-006,
          -4.61564514e-006, -5.76187585e-006, -9.01562430e-007,
          -2.28655495e-006, 1.84291966e-005, 1.36257211e-006,
          -7.01184263e-006, -7.46120031e-006, 5.07904224e-006,
          8.11514474e-006, -9.62400350e-007, 1.40279381e-005,
          -8.27658550e-006, 5.67296865e-006, -8.47213869e-006,
          -3.36424614e-006, -4.04114871e-006, 1.27821677e-005,
          -1.01737569e-005, -2.40621944e-006, -5.95909796e-006,
          3.93417804e-006, -1.35353794e-005, -4.46163358e-006,
          3.94807103e-006, 4.19090793e-006, -2.57256352e-006,
          -1.65935944e-006, 8.14098530e-006, -2.97164206e-006,
          5.50077129e-006, -5.06957076e-006, 2.21252799e-006,
          -1.47694573e-006, -1.07816295e-005, 5.83091514e-006,
          1.30692506e-005, -2.53736448e-006, 5.56817668e-006,
          1.01805858e-006, 5.27448583e-006, -1.51542156e-006,
          -3.93905111e-006 ]
      - [ 8.16874490e-006, -1.04770013e-004, -3.90149944e-005,
          5.72124054e-006, 2.19923422e-005, 5.45565163e-005,
          3.89214038e-005, 3.76962998e-005, -4.14609349e-005,
          -1.15964693e-004, -4.67901991e-005, -2.73305595e-005,
          -2.22272320e-006, 1.88269223e-005, 2.97837887e-005,
          1.76133235e-005, -2.31705344e-005, -1.78181981e-005,
          4.29971442e-005, -6.95810104e-006, -7.88777397e-005,
          -2.33755436e-005, 4.00162317e-005, 5.20267713e-005,
          -2.74984523e-005, -2.21051960e-005, -3.21465268e-005,
          -4.58413560e-005, -4.31876906e-005, -4.69392398e-005,
          3.49824477e-005, -2.02622887e-005, 3.88001899e-005,
          5.50897994e-006, 3.60482118e-005, -2.43247769e-006,
          2.67144605e-005, -2.70059209e-005, 3.58165416e-005,
          -8.20076184e-006, -9.57617340e-006, -2.89196159e-005,
          -2.59414483e-005, 5.84138979e-006, -4.34370595e-005,
          -3.90884270e-005, -1.77156144e-005, 1.26222803e-005,
          1.51628637e-005, 1.02916474e-005, -1.25856359e-005,
          -3.30299940e-007, 9.96584822e-006, 6.71146836e-006,
          2.81345128e-005, 1.06154835e-006, -1.43501293e-005,
          -3.47945092e-006, 4.76247533e-006, -7.39153256e-006,
          -4.97560177e-005, 1.82812928e-005, 1.62225970e-005,
          -4.35007132e-006, -3.46057423e-005, 4.97989367e-006,
          2.38853099e-005, -3.57044428e-006, -1.39349470e-006,
          -1.62618380e-005, -2.58917535e-005, 1.27517287e-005,
          -4.10387220e-005, -1.15592175e-005, 3.22441883e-005,
          -1.74871402e-005, 8.62177694e-006, -1.86001052e-005,
          7.03576279e-006, 3.51865820e-005, 2.46086038e-005,
          9.19074409e-006, 3.47740897e-005, 6.69081464e-006,
          -9.63408456e-006, 9.47095657e-007, -3.86351603e-005,
          5.77527226e-006, 1.93547585e-005, 2.02209249e-005,
          -1.66290429e-005, -1.32681698e-005, -6.91227297e-006,
          1.98275611e-005, -1.11937534e-005, -1.29379678e-005,
          -6.11033602e-006, 1.17249847e-005, -7.19274522e-006,
          -2.14454917e-006 ]
      - [ 2.63647780e-005, -2.20674498e-004, -4.13071830e-005,
          -7.90209560e-006, 1.27745996e-004, 8.43509042e-006,
          8.93820179e-005, 5.65622395e-005, -1.60041935e-004,
          -1.77528636e-004, -8.49365388e-005, -1.99767783e-005,
          -1.86233901e-005, -5.68987343e-006, 6.67850327e-005,
          -2.49868590e-005, -5.44887280e-006, -2.73900127e-006,
          8.31818397e-005, 5.28984419e-005, -1.46516773e-004,
          -1.39472977e-005, -6.33848776e-006, 1.06511237e-004,
          -1.06494706e-004, -1.53242545e-005, -1.71721738e-004,
          -4.44160796e-005, -6.56745542e-005, -2.79037413e-005,
          6.45682449e-005, -6.89538574e-005, 1.38436681e-005,
          7.00588716e-005, 6.83231847e-005, 2.80533277e-005,
          -8.98816779e-006, -1.21107805e-004, 3.30817093e-005,
          -5.08719459e-005, -2.29987418e-005, -7.44861172e-005,
          -1.35127184e-005, -4.42258824e-005, -8.52364101e-005,
          -4.89284830e-005, -2.34887702e-005, 1.32984305e-005,
          1.13538326e-005, -5.99566883e-005, 1.01988744e-005,
          5.27892989e-005, 4.38935094e-005, -5.46367482e-005,
          1.47288738e-005, -3.20125218e-005, -8.01391798e-005,
          3.71860551e-005, -1.32782561e-005, 6.17865726e-006,
          -1.06842181e-005, 6.08995033e-005, 5.21004858e-006,
          -2.35420048e-005, -8.16866377e-005, 2.56084404e-005,
          9.05862998e-006, 3.82496819e-006, -3.99919591e-005,
          -6.33218078e-005, -6.19937273e-005, 1.77622660e-005,
          -1.23044782e-004, 4.69206934e-005, -5.92584911e-006,
          -6.91787063e-005, 1.05705069e-004, -1.87452224e-006,
          7.67004894e-005, 4.65182493e-005, -1.66143509e-005,
          7.78653557e-005, 5.16451219e-005, 6.11597716e-005,
          -3.62015780e-005, 8.64445465e-005, -1.16175952e-005,
          1.90593910e-005, -1.48333293e-005, -2.95630925e-005,
          -4.18650984e-007, -5.75884551e-005, 5.14614148e-005,
          3.84393861e-005, 7.82517745e-005, 8.17610926e-005,
          9.14227076e-006, -3.56897872e-005, -3.77716715e-005,
          -7.29304156e-005 ]
      - [ 1.13645028e-005, -1.22938247e-004, -4.90725361e-005,
          -1.32437872e-005, 7.84340809e-005, 2.81528937e-005,
          8.28690099e-005, 3.22604392e-005, -8.44543538e-005,
          -1.01057696e-004, -2.05274446e-005, -2.55353534e-005,
          -2.59940543e-006, -6.24514632e-006, 8.60293949e-005,
          -2.01685216e-005, -5.23398376e-006, -2.36324490e-006,
          1.46912598e-005, 1.02143522e-005, -8.41418732e-005,
          -4.06788786e-007, -1.38764526e-005, 5.29314684e-006,
          -7.26895678e-006, 1.56640126e-005, -8.90586161e-005,
          -5.87794275e-005, -5.28458368e-005, -1.99069800e-005,
          -1.20399036e-005, 1.82721681e-006, 3.02828103e-005,
          7.66450466e-006, -6.38864149e-005, -2.71947033e-006,
          -3.61460152e-005, -1.19807273e-005, 5.80728647e-006,
          -7.31892760e-006, -6.15045292e-006, -1.72789423e-005,
          -6.27285226e-006, 4.32173620e-005, -4.90122584e-005,
          -8.02862644e-007, -1.84887667e-005, 1.15920302e-005,
          6.04258057e-005, -1.48796526e-005, -3.30182957e-005,
          3.26345935e-006, 2.68927270e-005, -8.05519903e-006,
          -2.31657687e-005, -2.89924556e-005, -6.59128273e-005,
          1.10201681e-005, 1.51857403e-005, 2.93931607e-005,
          4.98087275e-007, 8.22063976e-006, -3.04095943e-006,
          6.59149555e-006, -1.24465960e-005, 1.21125277e-006,
          7.83374344e-006, 1.04279088e-005, 2.79286542e-005,
          6.65045354e-006, 6.60069873e-006, 3.93860228e-006,
          -1.41431028e-005, 2.18357332e-006, 9.77075251e-006,
          4.74806302e-006, -2.13961971e-006, -2.78909170e-006,
          1.99965034e-005, 2.49924178e-005, 3.47581808e-005,
          1.80910647e-005, 2.45452520e-005, 8.13534916e-006,
          -1.14710147e-005, 4.46132935e-006, 1.68448139e-006,
          -1.70554595e-005, 4.55853524e-006, -4.19086246e-005,
          -2.19671692e-005, 7.99414192e-006, -2.84738508e-006,
          4.99288617e-005, 2.14828615e-005, -8.11977952e-006,
          -3.95448224e-005, 3.10913638e-005, -1.27817548e-005,
          1.28427428e-005 ]
      - [ 2.11512361e-005, -1.23075777e-004, -5.97569160e-005,
          1.36402889e-006, 7.77179011e-005, 1.08692939e-005,
          9.45825159e-005, 6.61712374e-006, -6.05256209e-005,
          -1.10202818e-004, -3.17582126e-005, -2.44743642e-005,
          -3.75998070e-006, 1.58192233e-005, 1.05921434e-004,
          -2.72455454e-005, -2.14676220e-005, -1.69642153e-005,
          4.20763428e-007, -5.56482792e-006, -7.37981100e-005,
          8.01386614e-006, -4.11031324e-005, -4.67358774e-007,
          -3.59922524e-005, -4.87708485e-006, -5.58201427e-005,
          -2.38294906e-005, -5.43056058e-006, 3.47695118e-006,
          -5.42537418e-006, 8.65702441e-006, 2.46139061e-005,
          -6.30358136e-006, 8.19535580e-006, 2.25569306e-006,
          2.44398848e-006, -2.41524485e-005, 1.63799996e-005,
          -4.54176625e-005, 8.20054993e-006, -2.15336586e-005,
          -2.01465195e-006, 3.24224129e-005, 2.92580421e-006,
          2.58519613e-005, -2.38327812e-005, 2.37775384e-005,
          3.69226327e-005, -6.10010011e-006, 9.96172821e-006,
          6.03424360e-006, -2.43068939e-006, -2.27565906e-005,
          1.63671521e-005, -1.51651338e-005, -3.80347265e-005,
          -1.71998236e-005, -7.19505124e-006, 3.38968057e-005,
          3.07271875e-005, 1.87274941e-006, -2.29159741e-005,
          -4.74857443e-005, 2.69190764e-006, 3.46572733e-006,
          3.37602864e-006, 3.47050991e-005, -1.19365423e-005,
          1.56106125e-005, 1.11661102e-005, -8.91525985e-007,
          -1.82162003e-005, 2.66241204e-005, -2.89878585e-006,
          3.21086882e-005, 2.05178858e-005, -3.86233114e-005,
          1.91228464e-005, 1.41094060e-005, 8.63624427e-006,
          2.16343460e-006, 1.43870711e-005, -8.95247922e-006,
          1.47473281e-006, 6.12224221e-006, 2.45154098e-007,
          -1.70905969e-005, -5.33482626e-006, -1.50595624e-005,
          2.27655687e-006, 1.24454391e-005, 3.04581336e-005,
          7.88694069e-006, 1.10692317e-005, -1.35818973e-005,
          -1.89800048e-005, 2.26736793e-005, -1.20496779e-005,
          8.93898050e-006 ]
      - [ 1.40922466e-005, -1.12929083e-004, -4.50642183e-005,
          -1.68386432e-005, 8.28441480e-005, -1.74174074e-005,
          7.49085884e-005, 2.57907959e-005, -6.61954182e-005,
          -5.53142527e-005, -1.56122610e-007, -1.01623373e-005,
          -1.34976181e-005, 1.34015636e-005, 8.31485231e-005,
          -2.53832950e-005, 3.01249311e-005, -1.28932743e-005,
          1.35533974e-005, 1.03760613e-006, -3.78752702e-005,
          6.83009739e-006, -2.80340591e-005, -1.41846613e-005,
          -1.36156759e-005, -1.38180633e-006, -1.60866803e-005,
          -3.96685173e-005, 9.15398687e-006, 9.90563512e-006,
          -2.12776831e-005, 3.84688292e-006, -1.04588453e-005,
          1.41410801e-005, 1.62208144e-005, -5.28779674e-006,
          2.30759506e-005, -1.96762430e-005, 5.86420811e-006,
          -2.84562830e-005, -1.90652863e-005, -7.05906905e-006,
          -7.37958680e-006, -2.81839721e-006, 5.34220305e-007,
          1.17039399e-005, -2.23550287e-005, 7.46882779e-006,
          2.82986803e-005, -4.69908088e-007, 3.86347756e-006,
          1.98664966e-005, -6.18469903e-006, -2.51986876e-006,
          3.77844231e-006, -2.65833955e-006, -3.19709252e-005,
          -2.18117584e-005, 1.27856365e-005, 1.03505026e-005,
          1.84093024e-005, 8.19144134e-006, -3.08483359e-005,
          -1.87046044e-005, 1.51279937e-005, 4.90241473e-006,
          -2.00639315e-005, 2.23158022e-005, 2.18630066e-006,
          9.06106288e-006, -1.08381355e-005, -3.63112190e-006,
          -9.71939062e-006, 3.24354551e-006, -2.01853691e-005,
          2.49606205e-006, 2.56784169e-005, -2.57356942e-006,
          -3.53040468e-006, 6.89564513e-006, 5.83061592e-006,
          1.45447966e-005, 1.38699243e-005, -6.21061463e-006,
          -1.76460480e-006, -1.19750330e-005, 7.56302597e-006,
          -1.55407020e-006, 1.79618582e-005, -1.50978121e-005,
          6.86436215e-006, -2.44631497e-006, -3.97931944e-006,
          1.13048509e-005, 1.54859590e-005, -7.51571406e-006,
          -1.00599418e-005, -2.49527307e-006, -8.27758231e-006,
          -4.55970167e-007 ]
      - [ 9.54295683e-006, -9.26289213e-005, -5.68680734e-005,
          -1.67297021e-005, 7.08253574e-005, -3.09185161e-005,
          5.16912587e-005, 8.22688980e-006, -3.78536097e-005,
          -5.29223034e-005, -2.17670495e-005, 5.33763250e-006,
          -8.22515722e-006, 2.92629775e-005, 7.83527212e-005,
          -2.60983743e-005, 1.19572533e-005, 1.00214329e-005,
          2.64075243e-005, 4.10384064e-006, -1.28127467e-005,
          2.39294313e-005, -1.17114596e-005, -6.08390383e-006,
          -1.93385931e-005, -1.19670894e-005, -2.28481222e-005,
          -3.80792189e-005, 1.11489617e-005, -2.17364395e-005,
          -8.43327416e-006, 1.13430333e-005, 9.38505036e-006,
          -1.08522527e-005, -1.44868172e-005, 3.42272710e-006,
          1.45612894e-005, -9.85142924e-006, -1.26196346e-006,
          -2.98620162e-005, 1.54497084e-005, 9.02142983e-006,
          -6.17458863e-006, 9.97528878e-006, 6.19810817e-006,
          1.88497665e-006, -1.76052108e-005, -4.92917388e-006,
          5.46845376e-006, -1.44732721e-005, 7.84954409e-006,
          1.27210769e-005, 1.44109117e-005, -5.34698165e-006,
          8.91411491e-006, -1.08533050e-005, -1.91153376e-005,
          -1.03364973e-005, 2.76982996e-006, 1.18937260e-005,
          -6.97790847e-006, -1.06752975e-006, -5.63453659e-006,
          -1.37898141e-005, -6.43731300e-006, 9.44890417e-007,
          3.03977413e-006, 8.26121834e-007, 1.44166634e-005,
          -7.24467736e-006, -1.87763671e-005, 7.20663047e-006,
          -6.39118707e-006, 1.01642281e-005, -8.97844711e-006,
          6.39039172e-006, 1.32743307e-005, -1.14618206e-005,
          1.21531903e-005, 3.13806277e-006, 3.20710888e-006,
          1.24101571e-005, 3.71349779e-006, 1.05624331e-005,
          3.21891093e-006, -7.86401415e-007, -4.71410431e-007,
          7.68467635e-006, -6.45984665e-006, -1.26578771e-005,
          2.42412953e-005, -2.00584491e-008, -1.07372125e-005,
          -5.94010362e-006, -3.03268689e-006, -1.20775007e-006,
          -1.03439952e-005, 2.47854723e-006, -1.57722911e-006,
          1.97002510e-006 ]
      - [ 1.18932830e-005, -6.42846280e-005, -5.57091807e-005,
          -1.89856110e-005, 6.72280439e-005, -6.44766624e-005,
          2.77741019e-005, -1.17834325e-005, -1.33980075e-005,
          -9.64158880e-006, -1.44677524e-005, -5.21181437e-006,
          -8.23814025e-006, 4.08978885e-005, 4.03499835e-005,
          -1.64188023e-005, 5.79111429e-006, 3.64847233e-006,
          2.86622799e-005, 2.55501254e-005, 6.39500240e-006,
          3.05440881e-005, 4.13287707e-005, -6.76332365e-006,
          -1.75345485e-005, 1.08541199e-005, 8.34366801e-006,
          -3.02335466e-005, -6.32006368e-006, 5.99081341e-006,
          -2.06779860e-005, -5.25296127e-006, 1.71034972e-005,
          -2.94762481e-006, -6.12041958e-007, -2.00094564e-006,
          1.12723110e-005, -5.21241759e-007, 3.10170617e-006,
          -1.97623976e-005, -3.19658602e-006, -5.85250746e-006,
          5.39684061e-006, 1.25902870e-005, -1.16768279e-005,
          1.45052024e-006, -4.90652064e-006, -4.41120437e-006,
          1.21017783e-005, -5.12982160e-006, 8.12564849e-006,
          8.39931272e-006, 1.27468284e-005, -6.40454527e-006,
          -1.76142498e-006, 5.50876211e-006, -1.03203802e-005,
          -6.57255896e-006, -3.69422173e-006, 1.17727768e-006,
          3.83829183e-006, 9.87692874e-006, -9.15066539e-006,
          -1.12945281e-006, -4.92725849e-006, 7.86571854e-006,
          5.30773468e-006, -2.36050937e-006, 1.13430442e-005,
          -2.96655253e-006, 1.59139097e-006, -6.52415793e-006,
          2.25189851e-007, 1.71697764e-006, 3.29632030e-006,
          -8.71576231e-006, 8.10943789e-007, -6.42864688e-006,
          5.28960891e-006, -4.84757584e-006, -3.46761499e-006,
          3.93031360e-006, 1.56349086e-006, -2.92213349e-006,
          3.91474487e-006, 5.39974644e-006, 3.09329266e-006,
          4.65558787e-006, -2.38068128e-006, -3.43385909e-006,
          1.70149883e-006, -2.74369495e-006, 9.99188978e-006,
          9.92389869e-006, 1.08890902e-007, 9.02609736e-006,
          8.94472123e-007, 5.22922710e-006, 2.26849647e-006,
          -9.10932977e-006 ]
      - [ 2.05862580e-005, -9.78362950e-005, -3.20330437e-005,
          -2.52468112e-006, 6.72649048e-006, 4.76291825e-005,
          4.13830712e-005, 2.84074977e-005, -5.30759789e-005,
          -1.22398924e-004, -6.33630407e-005, -1.89417788e-005,
          -1.96686306e-005, 4.36040318e-005, 3.58855505e-005,
          9.63202365e-006, -3.71441445e-007, -5.17522403e-006,
          3.65677006e-005, -2.79592678e-005, -1.06327687e-004,
          6.98595898e-007, 3.05710528e-005, 5.24716488e-005,
          -4.14524038e-005, -3.32276140e-005, -1.05233703e-004,
          -9.01669409e-005, -3.38050304e-005, -6.12920485e-005,
          3.17563135e-005, -1.79227081e-005, 5.57900203e-005,
          1.61838543e-005, 6.10712414e-006, -6.41498082e-006,
          -9.49375681e-006, -4.25994331e-005, 2.01015846e-005,
          -8.51292407e-006, -2.39840733e-006, -2.53182097e-005,
          -1.54101981e-005, 1.72432810e-005, -4.32234083e-005,
          -1.92445641e-005, -2.01431958e-005, 1.87820297e-005,
          4.77427639e-005, -2.56167732e-005, -6.65226207e-006,
          -4.76129298e-006, 1.93507367e-005, 5.83944893e-006,
          9.90279659e-006, -1.08634240e-005, -3.17436279e-005,
          -3.28935967e-005, -1.23151452e-007, 2.86560789e-005,
          -5.43214665e-005, 1.36223643e-005, -1.21179173e-005,
          6.36177901e-006, -3.31238371e-005, 1.32353944e-005,
          2.88693846e-005, -1.53275832e-005, 1.02634785e-005,
          2.67834075e-005, -3.28781352e-005, 2.19525355e-005,
          -4.51040214e-005, 2.16465105e-005, 2.09571426e-005,
          -2.09659138e-005, 1.39634558e-005, -2.07163012e-005,
          1.62272772e-005, 5.00031674e-005, 3.57258941e-005,
          2.51608963e-005, 4.22770536e-005, 1.54728750e-005,
          -5.55437009e-006, -2.48018096e-005, -2.75290568e-005,
          -1.56747465e-005, 1.35953514e-005, 2.81267785e-006,
          -1.94978893e-005, 5.63264257e-006, -4.61033233e-006,
          1.53082619e-005, -2.19543995e-006, -1.04211058e-005,
          -1.60140789e-005, 1.95495213e-005, 5.88097100e-006,
          -1.69102805e-005 ]
      - [ 2.15293039e-005, -1.68337458e-004, -4.96345492e-005,
          -2.07732992e-005, 1.16147865e-004, 2.49491968e-005,
          9.05444904e-005, 8.35857645e-005, -6.50927686e-005,
          -8.22819929e-005, -1.48742756e-005, -2.56788080e-005,
          -1.30284734e-005, 3.28968308e-005, 3.96078758e-005,
          -4.40378026e-005, -5.45353851e-006, -1.88974263e-005,
          -2.29219422e-005, -1.80237421e-005, -8.43382877e-005,
          1.21445937e-005, -6.31797448e-005, -1.73184853e-005,
          6.01422835e-005, 5.41240261e-005, -7.52900305e-005,
          -1.04862547e-005, -1.74830766e-005, -3.09718125e-005,
          -1.46902512e-005, -5.16827095e-005, -8.85856643e-005,
          8.14026935e-005, -1.69601350e-004, 3.55621560e-005,
          -8.09914054e-005, 3.50799564e-005, -1.31260349e-005,
          -3.21976472e-006, -2.18677860e-006, -2.73377555e-005,
          -1.80940460e-005, -6.18606464e-006, -4.21458935e-006,
          -1.46371849e-006, -4.01581892e-005, 4.55213412e-005,
          9.17446523e-005, 2.77972304e-005, -8.37008884e-006,
          5.92559809e-005, 5.58143474e-005, -1.85666122e-005,
          -1.06574451e-004, -3.41284031e-005, -8.67713170e-005,
          5.75462182e-005, 8.65808906e-005, -2.11084028e-007,
          1.55640937e-005, 2.16295757e-005, -4.79302298e-006,
          3.46940760e-005, 8.51484492e-006, 2.96480885e-005,
          -3.25963192e-005, 3.60614627e-006, 5.16597938e-005,
          5.07865407e-005, 6.64641193e-005, -6.12377917e-005,
          -4.95535858e-007, 2.02121373e-005, -5.21293396e-006,
          2.89200307e-005, 1.25927545e-005, -1.45587805e-007,
          2.52724803e-005, 2.43790309e-005, -1.08358472e-005,
          1.43723955e-005, 1.81344221e-005, -3.33254029e-005,
          2.87846560e-005, 4.29890351e-005, 3.92795409e-005,
          3.82683829e-005, -1.04399551e-005, -1.45060258e-005,
          -5.83601786e-006, 5.23961353e-006, -3.28807291e-005,
          2.68724170e-006, -3.31747833e-005, -2.60831730e-005,
          -2.70400415e-005, 9.78987664e-005, -1.01584801e-005,
          -1.48348772e-005 ]
      - [ 2.86925824e-005, -1.42006567e-004, -7.61655974e-005,
          -8.47676620e-006, 1.08681117e-004, 5.12075849e-006,
          9.55416399e-005, 2.53652797e-005, -5.36825355e-005,
          -9.17107900e-005, -5.46517222e-005, 2.24880773e-006,
          8.38512187e-006, -1.51418419e-006, 8.74663965e-005,
          -2.72000634e-005, -2.04481530e-005, -1.11535228e-005,
          -2.48203887e-005, 7.45512034e-006, -2.78850930e-005,
          3.17526938e-005, -8.97965801e-005, 4.89640001e-007,
          -6.76476475e-006, 2.75219209e-005, 1.47820056e-005,
          5.37089772e-006, 1.56493079e-005, 9.44842213e-006,
          -4.98767731e-005, 2.69998618e-005, -1.68279475e-005,
          -2.06754248e-005, -2.75579187e-005, 2.13100757e-005,
          -1.59015817e-005, 2.31241775e-005, 3.91467220e-005,
          -3.95231000e-005, -1.89919811e-005, -8.21921185e-006,
          -1.70857766e-005, -2.78045882e-005, 3.80052006e-005,
          4.37825693e-005, -1.71393094e-005, -7.77614696e-006,
          4.89794329e-005, 3.26548434e-005, 2.84264570e-005,
          2.11149509e-005, -2.46402487e-006, 1.15845578e-005,
          -1.98677499e-005, -1.51680624e-005, -7.90822596e-005,
          -4.32103661e-005, 8.77880302e-006, 1.37652878e-005,
          2.85752412e-005, 2.21710907e-005, -4.80085037e-005,
          -9.08931106e-005, 4.42752898e-005, 3.97852054e-005,
          -3.08042727e-005, 1.49896614e-005, -5.27826633e-005,
          2.14702068e-005, 4.40494805e-005, -5.38738641e-005,
          3.13409109e-005, 5.46614319e-005, -4.19905919e-005,
          8.54484460e-005, 2.67343003e-005, -7.07267463e-005,
          1.85114277e-005, 5.22152113e-005, -4.63330725e-005,
          8.58543262e-006, -1.19387987e-005, -3.19998508e-005,
          3.76950120e-005, 3.41403174e-005, 6.79087771e-006,
          -2.02532665e-005, -3.34507990e-006, 1.98283487e-005,
          -5.76944731e-005, 7.81169911e-006, 4.91524988e-005,
          -3.29791874e-005, -8.61321314e-005, -5.05370444e-005,
          -1.93949199e-005, 4.99334164e-005, -2.13992480e-005,
          2.59860099e-005 ]
      - [ 1.91892432e-005, -1.33144931e-004, -5.89841329e-005,
          -3.29960785e-005, 1.03071325e-004, -1.84877281e-005,
          7.72077474e-005, 3.44780055e-005, -6.20293795e-005,
          -5.07939767e-005, -9.25682980e-006, -1.35077050e-006,
          -3.21834432e-006, 1.21697130e-005, 9.57132870e-005,
          -1.63591449e-005, 7.06019910e-006, -1.12947337e-005,
          2.31506169e-006, 1.08067150e-006, -1.36933422e-005,
          2.53343660e-005, -3.98405718e-005, -1.53041256e-005,
          2.35503721e-005, 9.46608907e-007, 1.12783309e-005,
          -3.22947126e-005, 3.86375541e-005, 1.72298169e-005,
          -5.64675065e-005, 1.63148088e-005, -3.88035151e-005,
          2.16574808e-005, -3.29964223e-006, -4.97897327e-006,
          4.66434949e-006, -9.96910785e-006, 6.19862476e-006,
          -2.29584093e-005, -2.66958396e-005, -1.48462306e-007,
          -2.51441306e-005, -3.16008664e-005, 2.74259764e-005,
          2.18375189e-005, -2.27659948e-005, -2.88819797e-006,
          5.42648522e-005, 7.42148904e-006, 5.79199877e-006,
          2.71797544e-005, -3.54075860e-006, 1.09911725e-005,
          -9.41665985e-006, -3.42616318e-006, -4.04512430e-005,
          -2.98598225e-005, 3.20234358e-005, -2.09709506e-005,
          1.47937972e-005, 2.03479849e-005, -4.97132460e-005,
          -2.38748780e-005, 3.13759883e-005, 5.58085048e-006,
          -4.16853109e-005, 1.45646691e-005, -3.46395677e-006,
          1.86490470e-005, 8.45810064e-006, -1.33481717e-005,
          1.83100565e-005, 7.84559052e-006, -3.11302938e-005,
          2.13971325e-005, 2.02001956e-005, -1.19986926e-005,
          -1.04585497e-005, 1.78712235e-005, -1.02255863e-005,
          3.07796618e-005, -9.69124540e-006, -1.03399661e-005,
          1.44804408e-005, -9.94265974e-006, 9.42123734e-006,
          2.16003696e-006, 3.48688809e-005, 6.00467138e-006,
          -1.59205028e-005, -7.58742362e-006, -1.52260091e-005,
          -1.01829664e-005, -2.76717092e-005, -7.72346175e-006,
          -1.39435861e-005, 9.50839535e-007, -9.68983386e-006,
          8.62471279e-006 ]
      - [ 2.05967644e-005, -1.06029016e-004, -7.22443656e-005,
          -3.62635510e-005, 9.90820845e-005, -4.23952151e-005,
          4.78875118e-005, 1.70306139e-005, -3.53147079e-005,
          -3.95915667e-005, -2.83394056e-005, 1.80886891e-005,
          4.76803234e-006, 2.59461267e-005, 8.82857130e-005,
          -2.84273156e-005, 1.84449273e-005, 1.68465140e-005,
          2.16698754e-005, -4.50805010e-006, 1.49054893e-006,
          4.21417317e-005, -2.34706113e-005, -1.90817609e-005,
          6.39637392e-006, -3.91742287e-006, 2.10251028e-006,
          -3.41790983e-005, 3.10225150e-005, -1.39869107e-005,
          -2.25065996e-005, 1.03379216e-005, -4.81486359e-006,
          -7.14257385e-006, -3.75622585e-005, 1.03525008e-005,
          3.01041354e-007, -7.95858057e-007, -7.19201864e-007,
          -2.77390736e-005, 1.49664493e-005, 2.60851502e-005,
          -4.99209773e-006, -6.06969070e-006, 1.87401474e-005,
          1.77981110e-006, -2.07479188e-005, -1.04281044e-005,
          1.58979692e-005, -1.03753291e-005, 1.59919964e-005,
          1.67024464e-005, 8.70129588e-006, 8.80849439e-006,
          1.27619001e-006, -7.33553588e-006, -1.98577600e-005,
          -1.88721588e-005, 1.75431123e-005, -7.98668589e-006,
          -1.62557517e-005, -5.60900980e-006, -1.34294423e-005,
          -2.44234288e-005, 2.16124226e-006, 5.58348256e-006,
          -1.07165488e-005, -4.26199449e-006, 9.11810002e-006,
          -4.61464333e-006, -6.82425070e-006, -4.88942669e-006,
          8.97269365e-006, 1.98867201e-005, -2.43754021e-005,
          1.44407641e-005, 1.53752990e-005, -2.31148697e-005,
          9.65663457e-006, 3.65735445e-006, -9.38726589e-006,
          1.29644386e-005, -1.17318177e-005, 8.06839216e-006,
          1.72487144e-005, 8.12475537e-006, 3.41800319e-006,
          1.29928212e-005, -5.05017260e-006, -6.81420124e-006,
          1.69216164e-005, 6.69568465e-007, -2.51970559e-005,
          -2.50275225e-005, -2.79640444e-005, -4.16339026e-006,
          -1.80549996e-005, 1.28656839e-005, -2.85527267e-006,
          2.95821815e-006 ]
      - [ 1.40089269e-005, -6.26493274e-005, -5.57870444e-005,
          -2.80003933e-005, 7.53662389e-005, -7.85942539e-005,
          3.19352221e-005, -8.70539225e-006, -5.68934774e-006,
          7.44916542e-006, -1.85029912e-005, 2.56394765e-006,
          -8.36993331e-006, 3.88631925e-005, 4.04834536e-005,
          -1.54031350e-005, 7.47113245e-006, 6.17742444e-006,
          2.26107422e-005, 2.24920987e-005, 1.77885631e-005,
          3.37340607e-005, 4.49479703e-005, -8.46120474e-006,
          -7.48261527e-006, 1.73059470e-005, 2.35226416e-005,
          -2.94472411e-005, 5.27487646e-006, 1.33304575e-005,
          -2.26169304e-005, -4.66014626e-006, 1.61859443e-005,
          -1.02207223e-005, -1.76749727e-005, 7.78864342e-006,
          -4.01910711e-006, 2.97065912e-006, 3.45474746e-006,
          -1.32190253e-005, 6.84343877e-006, 8.44174247e-006,
          4.43294584e-006, 1.30719700e-005, -9.10912513e-006,
          3.13405991e-007, -5.40501105e-006, -6.92103868e-006,
          2.20181919e-005, -7.06391756e-006, 1.91390063e-005,
          1.12193072e-006, 7.93214531e-006, 2.34725508e-006,
          -8.86550515e-006, 5.02309831e-006, -9.23504012e-006,
          -9.18736441e-006, -2.73219098e-006, -8.69607538e-006,
          5.77923629e-008, 7.72055409e-006, -1.72092678e-005,
          -3.93687060e-006, -3.14715089e-006, 6.09065546e-006,
          -5.04465515e-006, -3.61795878e-006, 8.16654665e-006,
          -3.58336229e-006, 1.69319428e-005, -1.54372374e-005,
          1.20931109e-005, 7.11143059e-007, 4.41495422e-006,
          -2.32766820e-006, -1.22559879e-006, -9.31855175e-006,
          3.47358059e-006, -8.09480753e-006, -9.39149868e-006,
          3.48786557e-006, -7.10451695e-006, -2.18927809e-007,
          1.20345821e-005, 3.47827654e-006, 5.49180004e-006,
          6.59721582e-006, 7.78761478e-006, 3.15588841e-006,
          -7.10052473e-006, -1.72830869e-006, 3.12175803e-006,
          -2.08296427e-007, -9.51912625e-006, 8.82701988e-006,
          -4.55693862e-006, 1.07746955e-005, 1.75396417e-006,
          -1.34009852e-005 ]
      - [ 4.00060453e-005, -1.54703652e-004, -1.28292413e-005,
          5.18976458e-006, 2.62126050e-005, 5.69955773e-005,
          1.70010862e-005, 2.11917759e-005, -2.92026616e-005,
          -1.73541499e-004, -1.18896081e-004, 8.09730318e-006,
          -8.73687095e-005, 7.96752065e-005, 8.83016764e-006,
          3.96098258e-005, 4.50140906e-005, 2.08135971e-005,
          -5.93555114e-006, -7.84138101e-005, -1.27083593e-004,
          -8.67003109e-007, 2.41012294e-005, 9.07067533e-006,
          -8.70695476e-006, -1.87241803e-005, -1.41832366e-004,
          -9.84053331e-005, -1.71388347e-005, -1.18001350e-004,
          1.12596381e-005, 2.89701165e-005, 1.57774994e-005,
          6.78518554e-005, -1.15092807e-004, 1.14621507e-005,
          -9.15985220e-005, 1.87149617e-005, 2.00286995e-005,
          9.61661317e-006, 1.76269859e-005, -2.88550127e-005,
          -2.91270753e-005, 2.51772217e-005, -3.21455263e-005,
          1.12514899e-005, -2.66779552e-005, 1.82383737e-005,
          1.09123292e-004, -2.93254416e-005, -9.67363485e-006,
          2.51834263e-005, -8.56627867e-006, 4.56978851e-005,
          -4.44464786e-005, 3.17786689e-005, -5.03045521e-005,
          -5.75099293e-005, 8.13713923e-005, -2.09258069e-005,
          -8.31561410e-005, -1.10183373e-005, -4.08755986e-005,
          2.27939963e-005, 2.10289163e-005, 6.39080781e-006,
          1.61482899e-006, -4.42997480e-005, -7.57516545e-006,
          1.04309751e-004, -4.92297077e-005, -1.29478021e-005,
          -3.58037069e-005, 6.68298962e-005, -1.00034849e-005,
          9.70047267e-007, 4.67439568e-005, 3.33177900e-006,
          -1.06453699e-005, 6.95289345e-005, 1.37688103e-005,
          7.74826185e-006, 1.86184043e-005, -3.85625426e-005,
          2.54232873e-005, -3.63151266e-005, -1.68811039e-005,
          -2.78291882e-005, -2.95833597e-005, 3.38174395e-005,
          -1.22547513e-004, 6.45440959e-005, -4.98057270e-005,
          -7.65861187e-005, -1.07458851e-004, -4.47807106e-005,
          -4.31034532e-005, 8.89266157e-005, 1.54916415e-005,
          -1.99387141e-005 ]
      - [ 4.64730510e-005, -1.51022614e-004, -8.25508832e-005,
          -4.77245958e-005, 8.82252716e-005, -8.12897906e-006,
          1.12052352e-004, 6.97413225e-006, -5.20934700e-005,
          -3.63823237e-005, -8.12043727e-005, 8.94831392e-005,
          -7.37441906e-006, -4.07806365e-005, 1.28211177e-004,
          -1.32998903e-005, -4.17182491e-005, 4.60268857e-005,
          3.57119097e-005, -2.93525209e-005, 2.61974383e-005,
          3.21045627e-005, -1.07199929e-004, 2.11741826e-006,
          -4.08840424e-005, 7.02382968e-005, 8.44367241e-005,
          4.17190786e-005, -4.72941520e-006, 1.07747350e-004,
          -6.92843387e-005, 3.27339076e-005, 1.50423948e-005,
          -1.05456900e-004, 1.19449251e-004, 2.42970191e-006,
          5.75129270e-005, 3.50531700e-005, -1.12993330e-005,
          -8.93029646e-005, 2.34148683e-005, -4.42631135e-005,
          8.33001468e-006, 6.13532939e-006, 7.27503430e-005,
          3.70788366e-005, -2.77448216e-005, -5.30447833e-005,
          5.54015132e-005, 1.94013119e-005, 4.36687651e-006,
          -5.37286833e-005, -1.87802962e-005, -4.02834776e-005,
          3.59423793e-005, 2.26329175e-005, 1.73440840e-005,
          -9.74972427e-005, -6.81616439e-005, 5.21186739e-005,
          7.40091946e-006, 2.49959394e-005, -2.55873019e-005,
          -6.74848779e-005, 8.70019903e-006, -5.22657792e-005,
          -2.45344290e-006, -3.15033649e-005, -9.60710895e-005,
          9.10118433e-006, 1.05081162e-005, 8.20062705e-005,
          2.99203548e-005, 6.49577050e-005, -1.53823657e-005,
          4.07298539e-005, 3.82125691e-005, -1.24984013e-004,
          2.23781590e-005, 3.05924768e-005, -3.25168221e-005,
          3.93444452e-006, -5.31784135e-005, -1.85702229e-005,
          -2.92464665e-005, 2.49929089e-005, -7.23066187e-005,
          -3.83995248e-005, 3.28482674e-005, 2.48320139e-005,
          3.09372226e-005, 3.56592282e-005, 6.79382574e-005,
          -1.19405395e-005, -7.05569764e-005, -7.65543373e-005,
          8.00542184e-005, 1.10761766e-005, 2.48558699e-005,
          5.08059347e-005 ]
      - [ 2.67909181e-005, -1.43738391e-004, -5.80453816e-005,
          -4.78470611e-005, 1.41672048e-004, -2.31422346e-005,
          5.36825683e-005, 3.33175467e-006, -2.14128268e-005,
          -1.95370158e-005, -1.60747495e-005, 1.55433063e-005,
          -2.15642976e-005, 2.63264519e-005, 1.31462177e-004,
          -3.69239046e-006, -1.68099668e-005, -4.96561199e-007,
          -2.07847515e-005, -4.48394931e-005, -1.48200952e-005,
          4.30154978e-005, -5.34449318e-005, -4.93754706e-005,
          3.66341446e-005, -1.16876272e-005, 9.29331873e-005,
          4.63372926e-005, 7.35329086e-005, 1.05368861e-004,
          -4.87626312e-005, -3.07679329e-005, -3.76531498e-005,
          2.82538417e-006, 1.16865893e-004, -4.94135293e-006,
          5.35816907e-005, -1.86297530e-005, -5.53637119e-006,
          -7.66386947e-005, 1.10723749e-005, 6.17014666e-006,
          8.18428816e-006, -3.86637876e-005, 4.11735600e-005,
          1.37365814e-005, -4.03805243e-005, -1.99447059e-005,
          5.41471236e-005, 1.10016720e-006, -1.19028609e-005,
          1.06079588e-005, -4.26343213e-005, 1.28702341e-005,
          7.70209226e-005, 3.71086353e-005, -7.54433631e-006,
          -5.46780211e-005, -4.70266014e-006, -1.99244405e-005,
          1.90894989e-005, 3.89838206e-005, -6.11515352e-005,
          -4.41624179e-005, 1.33300628e-005, -3.45656699e-005,
          -6.04864326e-005, -2.79679698e-005, -1.09232624e-005,
          2.49193217e-005, -2.19814210e-005, 3.00249249e-005,
          -4.06255131e-005, 4.56051254e-007, -1.51196400e-005,
          7.04484182e-006, 2.72228353e-005, -4.84090415e-005,
          -2.33564770e-005, 1.65712063e-005, -3.42152634e-005,
          2.73591686e-005, -1.70056992e-005, -1.04097171e-006,
          -6.13348391e-007, -5.99021996e-006, 1.01125434e-005,
          -7.84629356e-006, 3.48382127e-005, -2.97827938e-007,
          2.53078470e-005, -1.23759837e-005, 2.74190448e-008,
          -4.92215167e-006, -3.44359287e-005, -4.28450403e-005,
          5.64219554e-005, -2.79016203e-005, 2.23451716e-005,
          1.46391731e-005 ]
      - [ 1.84546516e-005, -9.78341195e-005, -5.79549633e-005,
          -5.63701178e-005, 1.14205686e-004, -5.86717033e-005,
          5.36766529e-005, 4.54662313e-006, 1.97943064e-006,
          6.61424508e-007, -2.60055749e-005, 3.38637255e-005,
          1.52060229e-005, 3.70756934e-005, 1.17301279e-004,
          -1.89491475e-005, -1.28889606e-005, 1.59454266e-005,
          2.49020704e-005, -3.57578429e-005, 1.85972403e-005,
          6.79190271e-005, -2.68478125e-005, -3.73133189e-005,
          8.87422357e-006, -4.42050004e-005, 5.48429925e-005,
          -4.15221029e-006, 6.97867290e-005, 2.20778893e-005,
          -1.54412173e-005, -2.64174560e-006, 2.46494574e-006,
          -3.38077625e-005, 4.45276019e-005, 8.26727137e-006,
          4.26140505e-005, -7.61725687e-006, -1.43345478e-005,
          -7.94654625e-005, 7.03435289e-005, 3.86382526e-005,
          6.28424641e-006, -1.98814632e-005, 3.62615356e-005,
          1.03212360e-005, -2.20338043e-005, -1.48799918e-005,
          3.49252286e-006, -1.57242321e-005, 4.53174067e-007,
          -1.58261992e-005, -5.51845824e-006, 6.26144083e-006,
          5.64332113e-005, 1.02028698e-005, -5.13356508e-006,
          -3.95923817e-005, -2.24839587e-005, 5.39663915e-006,
          -1.41703713e-005, -1.62003034e-005, -1.94208551e-005,
          -3.74437113e-005, -2.60527195e-005, -2.21395585e-005,
          -2.61104306e-005, -2.96963026e-005, 2.06935583e-005,
          5.50373852e-006, -2.41606540e-005, 1.50973128e-005,
          -3.26314002e-005, 2.79666947e-005, -1.85598074e-005,
          -2.00980321e-006, 9.11061397e-006, -5.25482355e-005,
          -2.37534755e-006, -6.03131127e-008, -2.22551171e-005,
          -5.97033250e-006, -1.21721187e-005, 1.86544949e-005,
          2.38484045e-005, 2.45993961e-005, -1.53072760e-005,
          -2.98129726e-006, -1.31521729e-005, 1.89131271e-007,
          4.64101031e-005, -3.26591794e-006, -1.38143869e-005,
          -2.12043724e-005, -5.77049195e-006, -1.12609050e-005,
          2.13545718e-005, -7.01257295e-006, 2.97870656e-006,
          1.08254944e-005 ]
      - [ 1.04280825e-005, -5.21629263e-005, -4.60913507e-005,
          -4.15058130e-005, 7.10115200e-005, -9.18414225e-005,
          3.47626483e-005, -1.22182530e-006, 4.08009964e-006,
          3.97300537e-005, -1.30664894e-005, 9.32581406e-006,
          6.79326558e-006, 5.69056610e-005, 2.45378760e-005,
          -2.15323325e-006, -1.28133588e-005, -4.79377422e-006,
          3.74696683e-005, -6.88605542e-006, 3.14006284e-005,
          5.05727548e-005, 5.45884941e-005, -1.75974874e-005,
          -1.87926253e-005, 6.71701355e-006, 4.52811000e-005,
          -2.65109102e-005, 3.45017434e-005, 2.02167594e-005,
          -6.67661425e-006, -1.44577689e-005, 1.91324325e-005,
          -2.22100389e-005, 1.95613411e-005, 1.64164048e-005,
          2.27488235e-005, -2.06069990e-006, -1.77942238e-005,
          -3.61414568e-005, 1.83108132e-005, 8.72920009e-006,
          1.55324524e-005, 1.07506230e-005, 6.30513796e-006,
          -4.56468615e-006, -4.52156610e-006, -5.85174257e-006,
          2.97259285e-005, -9.07971480e-006, 6.70642839e-006,
          -1.47421188e-005, -5.10818472e-006, 1.22124593e-005,
          8.75234400e-006, 1.28321199e-005, 3.28762962e-006,
          -9.32300281e-006, -2.92544973e-005, -6.10637301e-007,
          5.06082779e-006, 3.57101908e-006, -1.05825138e-005,
          3.39511234e-006, -5.06037486e-006, 8.50954109e-007,
          -8.58459771e-006, -6.57181999e-006, 1.58057501e-005,
          -1.59829005e-006, 1.31668357e-005, -8.93999004e-006,
          -7.64371089e-006, -1.27990836e-006, 1.43711832e-005,
          -1.20856030e-005, -2.37764129e-006, -2.54837578e-005,
          -1.09592893e-005, -1.43883753e-005, -2.21724749e-005,
          -6.57808357e-007, -3.95227198e-006, -2.07296148e-006,
          5.80630513e-006, 1.24251146e-005, 5.57761041e-006,
          -2.46251602e-006, 4.29798956e-006, 8.72354758e-006,
          5.43699980e-006, 2.93886319e-006, 5.07201594e-006,
          1.07978194e-005, 1.44121645e-006, -3.63464142e-006,
          1.51290769e-005, -2.34306890e-006, 7.58566057e-006,
          -1.01176956e-005 ]
      - [ -1.57968861e-005, 1.26802508e-004, 2.82672554e-005,
          5.42863108e-006, -9.63427810e-005, 1.21671192e-005,
          -8.39787172e-005, -2.51250058e-005, 1.37320865e-004,
          1.96905512e-005, 2.80085878e-005, -3.68780576e-007,
          -5.05364987e-005, -1.04318843e-007, -7.28783198e-005,
          3.29278532e-006, 5.66494236e-005, -3.67521898e-005,
          6.39027057e-005, -6.88211276e-006, 1.89097264e-005,
          -3.50417249e-005, 5.72383942e-005, 7.26315920e-005,
          -6.18622944e-005, -2.89490563e-005, -4.59650400e-005,
          -1.99032056e-005, 2.06214390e-005, -6.08254668e-005,
          6.99406010e-005, -2.25335752e-005, 2.85542465e-005,
          -4.00280042e-005, 2.20051821e-004, -2.18893983e-005,
          8.45027826e-005, -6.68343855e-005, 2.38888806e-005,
          -8.03720395e-005, 1.63747627e-005, 1.73531371e-005,
          3.33947401e-006, -9.06533824e-005, 9.23607076e-005,
          -7.00354067e-005, -1.59742231e-005, 2.59235676e-005,
          -8.30930003e-005, -4.35545826e-006, 3.65624037e-005,
          -6.83982726e-005, 4.51845808e-005, -2.90738899e-005,
          5.40792644e-005, 3.17849663e-005, 8.10456913e-006,
          -8.71236625e-005, -1.16632145e-004, -5.12243460e-005,
          -1.26401777e-004, -3.74984520e-005, -7.62808922e-005,
          -3.21074840e-005, -7.16842769e-005, 1.78689743e-006,
          4.50824373e-005, -1.72420041e-005, -1.03257451e-004,
          1.31938459e-005, -6.92268004e-005, -1.60613163e-005,
          -7.75885128e-005, 5.30580437e-005, -1.49624948e-005,
          -6.36175391e-005, 1.73957142e-005, -2.33616047e-005,
          4.56105481e-005, -1.44454052e-005, -3.85757812e-005,
          -1.60568197e-005, 6.33634263e-005, -2.95631944e-005,
          2.17321212e-005, -3.63174695e-005, -8.08923651e-005,
          -6.54521209e-005, 1.63768455e-005, 6.67063214e-005,
          -1.59133997e-005, -7.15547139e-005, 3.82191356e-005,
          -8.59305146e-005, -3.96604119e-005, 3.96626638e-005,
          1.91432537e-005, -7.58825365e-007, 4.12469199e-005,
          -2.21445462e-005 ]
      - [ 2.02026913e-005, -1.44218691e-004, -6.32855517e-005,
          -8.09008179e-006, 1.38454605e-004, -4.52051390e-005,
          6.85888372e-005, -3.63324943e-005, -1.01465688e-004,
          4.55174413e-005, 3.19234714e-005, 1.14093355e-005,
          -1.15389063e-004, 1.39554677e-005, 1.41163022e-004,
          4.20612814e-005, 3.03021243e-005, 2.61051282e-005,
          -4.92985455e-005, -7.56849404e-005, -1.00491503e-004,
          4.05975843e-005, -6.15344106e-005, -4.96244720e-005,
          1.39279609e-005, -1.58371895e-005, 4.74030821e-005,
          1.01394207e-005, 1.41999859e-004, 2.95020436e-005,
          1.82024905e-005, -1.28852707e-005, -8.63068562e-005,
          1.04084165e-006, 1.68976010e-004, 2.49824534e-005,
          4.25448161e-005, -5.59400833e-005, -2.57684460e-005,
          -1.01024234e-004, 2.45053143e-005, 9.26488428e-006,
          1.12508760e-005, 3.83215702e-005, -1.22974734e-005,
          2.43964641e-005, -7.25800637e-005, -3.04573841e-005,
          -2.84497878e-006, -1.42654371e-005, -6.16549441e-005,
          4.57599417e-005, -1.00780191e-004, -1.42296894e-005,
          3.16391197e-005, 2.37843451e-005, -4.48851679e-005,
          -3.25354304e-005, 3.93407136e-005, -8.28381417e-006,
          -1.64380490e-005, -3.33156640e-005, -5.72087156e-005,
          -1.10639539e-005, 4.40376025e-005, -4.89693011e-005,
          1.74915886e-006, -3.91297217e-005, 5.27342163e-005,
          1.38439646e-005, -1.17078693e-004, -2.39316269e-005,
          -1.87577971e-005, 3.29024042e-005, 3.32356176e-005,
          -9.97292300e-005, 5.76382663e-005, 2.72743182e-005,
          -7.21894248e-005, 5.20820606e-007, -3.00905731e-006,
          1.74895979e-006, -4.59935109e-006, -4.19642929e-005,
          1.25726976e-004, -9.45924621e-005, 5.65050505e-005,
          6.16780526e-005, 9.87364183e-005, -2.38035664e-005,
          3.96613395e-005, -2.89086383e-005, -1.87719543e-005,
          -1.54966401e-005, -5.89672854e-005, -2.89906038e-005,
          1.14929708e-005, -5.49712968e-005, 1.28429165e-005,
          -5.77464516e-006 ]
      - [ 4.90744897e-005, -1.29163178e-004, -7.02697507e-005,
          -1.89955372e-005, 1.31583001e-004, -7.50574400e-005,
          7.46861479e-005, -1.88241538e-005, 6.49021194e-006,
          5.30311590e-005, 1.70554194e-005, 4.78004113e-005,
          3.47800295e-007, 7.50283361e-005, 1.47074839e-004,
          1.24022199e-005, 1.64242635e-006, 3.29337345e-005,
          1.12027346e-005, -4.59900402e-005, -2.27352430e-005,
          1.05451472e-004, -1.92624666e-005, -6.67511340e-005,
          3.02701101e-005, -5.69271870e-005, 5.49690994e-005,
          -5.07874793e-005, 8.33816230e-005, -4.85610108e-005,
          5.70937736e-005, 1.93122014e-005, -5.20001813e-005,
          -4.46966369e-005, 4.01891994e-005, 5.12121842e-005,
          4.41861594e-005, -3.41426858e-005, -3.29817522e-005,
          -9.39978854e-005, 1.39407421e-004, 3.79810699e-005,
          4.01101852e-006, 2.24916530e-005, 8.93662309e-006,
          -1.08506001e-005, -4.87306897e-005, 2.04720909e-005,
          -2.56658877e-005, -2.77441923e-005, -2.06848181e-005,
          1.40608745e-005, -2.55340910e-005, 2.95627774e-006,
          5.63989561e-005, 2.08053370e-005, -1.09597413e-005,
          -1.27140338e-005, -1.51404165e-005, 1.20710520e-005,
          -6.70110676e-005, -7.94804509e-005, 7.52500910e-006,
          -4.33597706e-005, -2.15516284e-005, -4.46302656e-005,
          -5.19246441e-006, -5.09395504e-005, 6.70152731e-005,
          7.63713956e-007, -8.53511665e-005, -2.63323363e-005,
          -3.16692676e-005, 5.12080151e-005, 1.20045788e-005,
          -4.85432647e-005, 4.31589797e-005, -1.28235679e-005,
          -1.17838854e-005, -4.00306999e-006, -2.70895798e-005,
          -2.52835798e-006, 1.27553394e-005, -1.52448438e-005,
          1.05978957e-004, 3.34234028e-005, -3.04927253e-005,
          1.59003084e-005, 4.51368624e-006, 8.82465883e-006,
          5.47672498e-005, -5.01121103e-005, -4.15704053e-005,
          -4.47116217e-005, 1.17695845e-005, -2.65717699e-005,
          -3.53002179e-005, 5.18067145e-006, -1.77667989e-005,
          -1.92801817e-005 ]
      - [ 1.97828813e-005, -4.66967867e-005, -4.16781768e-005,
          -2.62689591e-005, 5.61769120e-005, -9.66022635e-005,
          2.62447593e-005, 7.15781607e-006, 2.93813046e-005,
          7.15179558e-005, 7.36974334e-006, 1.54674963e-005,
          -1.26801240e-006, 8.19715206e-005, 1.81695359e-005,
          3.43489337e-005, -1.89544953e-005, 1.38577559e-006,
          5.05106873e-005, 3.55277552e-006, 2.04544504e-005,
          6.54416654e-005, 8.54025420e-005, -7.68827431e-006,
          -2.30946262e-005, 6.53669440e-006, 4.08845990e-005,
          -4.12275695e-005, 4.82424548e-005, -1.49988564e-005,
          1.65630336e-005, -6.71528142e-006, 1.30393910e-005,
          -2.30767837e-005, 1.45188251e-005, 4.30935761e-005,
          1.91541440e-005, -1.35060709e-005, -2.58031614e-005,
          -3.11963049e-005, 1.42647841e-005, 6.26275551e-006,
          2.53756807e-005, 1.98401121e-005, -1.41319370e-005,
          1.35413745e-006, -1.87459827e-005, 1.11691525e-005,
          2.52104328e-005, -1.32872055e-005, 1.23513018e-006,
          5.25786118e-006, -1.98911198e-006, 3.00912725e-005,
          -8.98415419e-006, 1.67376438e-005, -2.12491050e-005,
          -5.91204071e-006, -2.91752949e-005, -1.77735080e-006,
          -9.55216819e-006, 3.83370570e-006, -1.01618762e-005,
